{"learner":{"attributes":{"scikit_learn":"{\"_estimator_type\": \"regressor\"}"},"feature_names":["Bedroom","Bathroom","Property Size","# of Floors","Total Units","Parking Lot","Property Age","Tenure Type Encoded","Property Type Encoded","Land Title Encoded","Transit Zone","Facility Count","Facility Tier","State_Kedah","State_Kelantan","State_Kuala Lumpur","State_Melaka","State_Negeri Sembilan","State_Other","State_Pahang","State_Penang","State_Perak","State_Putrajaya","State_Sabah","State_Sarawak","State_Selangor","State_Terengganu"],"feature_types":["float","float","float","float","float","float","float","int","int","int","int","int","int","i","i","i","i","i","i","i","i","i","i","i","i","i","i"],"gradient_booster":{"model":{"cats":{"enc":[],"feature_segments":[],"sorted_idx":[]},"gbtree_model_param":{"num_parallel_tree":"1","num_trees":"200"},"iteration_indptr":[0,1,2,3,4,5,6,7,8,9,10,11,12,13,14,15,16,17,18,19,20,21,22,23,24,25,26,27,28,29,30,31,32,33,34,35,36,37,38,39,40,41,42,43,44,45,46,47,48,49,50,51,52,53,54,55,56,57,58,59,60,61,62,63,64,65,66,67,68,69,70,71,72,73,74,75,76,77,78,79,80,81,82,83,84,85,86,87,88,89,90,91,92,93,94,95,96,97,98,99,100,101,102,103,104,105,106,107,108,109,110,111,112,113,114,115,116,117,118,119,120,121,122,123,124,125,126,127,128,129,130,131,132,133,134,135,136,137,138,139,140,141,142,143,144,145,146,147,148,149,150,151,152,153,154,155,156,157,158,159,160,161,162,163,164,165,166,167,168,169,170,171,172,173,174,175,176,177,178,179,180,181,182,183,184,185,186,187,188,189,190,191,192,193,194,195,196,197,198,199,200],"tree_info":[0,0,0,0,0,0,0,0,0,0,0,0,0,0,0,0,0,0,0,0,0,0,0,0,0,0,0,0,0,0,0,0,0,0,0,0,0,0,0,0,0,0,0,0,0,0,0,0,0,0,0,0,0,0,0,0,0,0,0,0,0,0,0,0,0,0,0,0,0,0,0,0,0,0,0,0,0,0,0,0,0,0,0,0,0,0,0,0,0,0,0,0,0,0,0,0,0,0,0,0,0,0,0,0,0,0,0,0,0,0,0,0,0,0,0,0,0,0,0,0,0,0,0,0,0,0,0,0,0,0,0,0,0,0,0,0,0,0,0,0,0,0,0,0,0,0,0,0,0,0,0,0,0,0,0,0,0,0,0,0,0,0,0,0,0,0,0,0,0,0,0,0,0,0,0,0,0,0,0,0,0,0,0,0,0,0,0,0,0,0,0,0,0,0,0,0,0,0,0,0],"trees":[{"base_weights":[5.2714543E-3,-5.8609758E4,5.263387E5,-1.3312523E5,5.1971105E4,3.7270662E5,1.0389737E6,-2.3210134E3,-1.5410773E5,1.1911388E3,2.0266869E5,2.1094825E5,5.019848E5,7.7716194E5,1.5401906E6,-1.1211201E5,2.757943E4,-1.6645667E5,-2.304035E4,-7.939738E4,3.15268E4,6.4740206E5,1.8544645E5,1.1719048E5,3.926041E5,4.3677566E5,8.227577E5,6.6223774E3,8.066327E5,8.497021E4,1.9233831E6,-1.3167296E4,-3.2567585E3,-1.0108972E4,5.1946704E3,-2.3226365E4,-1.380907E4,-4.5361772E3,6.19804E3,-9.121863E3,6.292812E3,-4.6459113E2,9.062393E3,6.938539E4,1.1466783E4,1.4213519E4,2.7645967E4,7.678772E3,2.1839826E4,5.7921418E4,2.985535E4,5.38021E4,3.2390729E4,1.5862236E5,6.589074E4,8.473046E4,1.6775176E4,2.1848911E5,2.3622377E4],"categories":[],"categories_nodes":[],"categories_segments":[],"categories_sizes":[],"default_left":[0,0,0,0,0,0,0,0,0,0,0,0,0,0,0,0,0,0,0,0,0,0,0,0,0,0,0,0,0,0,0,0,0,0,0,0,0,0,0,0,0,0,0,0,0,0,0,0,0,0,0,0,0,0,0,0,0,0,0],"id":0,"left_children":[1,3,5,7,9,11,13,15,17,19,21,23,25,27,29,31,33,35,37,39,41,43,45,47,49,51,53,-1,55,-1,57,-1,-1,-1,-1,-1,-1,-1,-1,-1,-1,-1,-1,-1,-1,-1,-1,-1,-1,-1,-1,-1,-1,-1,-1,-1,-1,-1,-1],"loss_changes":[9.4211576E13,2.26504E13,2.3712456E13,4.506274E12,8.470985E12,4.8502114E12,7.98874E12,7.5157026E11,2.2864032E12,2.0291647E12,2.0168867E12,1.7763769E12,2.3808107E12,9.522727E11,4.451264E12,7.195394E10,5.696082E11,2.3815468E12,2.3623891E11,3.876596E11,1.2894559E12,1.6790218E11,1.0250187E12,2.7764287E11,4.5890247E11,1.0941723E12,1.581802E12,0E0,1.0531499E12,0E0,5.6607543E12,0E0,0E0,0E0,0E0,0E0,0E0,0E0,0E0,0E0,0E0,0E0,0E0,0E0,0E0,0E0,0E0,0E0,0E0,0E0,0E0,0E0,0E0,0E0,0E0,0E0,0E0,0E0,0E0],"parents":[2147483647,0,0,1,1,2,2,3,3,4,4,5,5,6,6,7,7,8,8,9,9,10,10,11,11,12,12,13,13,14,14,15,15,16,16,17,17,18,18,19,19,20,20,21,21,22,22,23,23,24,24,25,25,26,26,28,28,30,30],"right_children":[2,4,6,8,10,12,14,16,18,20,22,24,26,28,30,32,34,36,38,40,42,44,46,48,50,52,54,-1,56,-1,58,-1,-1,-1,-1,-1,-1,-1,-1,-1,-1,-1,-1,-1,-1,-1,-1,-1,-1,-1,-1,-1,-1,-1,-1,-1,-1,-1,-1],"split_conditions":[1.4E3,9.36E2,4E0,1.1E1,1E0,3E0,2.74706E3,1E0,5E0,1E0,5E0,1E0,2.045E3,1E0,3E0,1.196E3,5.6E2,7E2,1E0,2.4E1,1.152E3,2.1E1,1.206E3,1E0,9E0,4.52E2,1.4E1,6.6223774E3,1E0,8.497021E4,6E0,-1.3167296E4,-3.2567585E3,-1.0108972E4,5.1946704E3,-2.3226365E4,-1.380907E4,-4.5361772E3,6.19804E3,-9.121863E3,6.292812E3,-4.6459113E2,9.062393E3,6.938539E4,1.1466783E4,1.4213519E4,2.7645967E4,7.678772E3,2.1839826E4,5.7921418E4,2.985535E4,5.38021E4,3.2390729E4,1.5862236E5,6.589074E4,8.473046E4,1.6775176E4,2.1848911E5,2.3622377E4],"split_indices":[2,2,1,6,20,1,2,8,8,8,6,20,2,8,5,4,2,2,15,3,2,3,2,15,6,4,3,0,25,0,0,0,0,0,0,0,0,0,0,0,0,0,0,0,0,0,0,0,0,0,0,0,0,0,0,0,0,0,0],"split_type":[0,0,0,0,0,0,0,0,0,0,0,0,0,0,0,0,0,0,0,0,0,0,0,0,0,0,0,0,0,0,0,0,0,0,0,0,0,0,0,0,0,0,0,0,0,0,0,0,0,0,0,0,0,0,0,0,0,0,0],"sum_hessian":[3.052E3,2.747E3,3.05E2,1.641E3,1.106E3,2.36E2,6.9E1,2.27E2,1.414E3,8.28E2,2.78E2,1.06E2,1.3E2,4.7E1,2.2E1,4.8E1,1.79E2,1.292E3,1.22E2,2.26E2,6.02E2,9E0,2.69E2,7.1E1,3.5E1,1.1E2,2E1,2E0,4.5E1,9E0,1.3E1,3.8E1,1E1,2.8E1,1.51E2,3.87E2,9.05E2,9.7E1,2.5E1,2.09E2,1.7E1,3.74E2,2.28E2,8E0,1E0,1.84E2,8.5E1,5.2E1,1.9E1,1E1,2.5E1,5.6E1,5.4E1,2E0,1.8E1,4.2E1,3E0,1.1E1,2E0],"tree_param":{"num_deleted":"0","num_feature":"27","num_nodes":"59","size_leaf_vector":"1"}},{"base_weights":[3.0625436E2,-5.2722664E4,4.7652575E5,-1.1984725E5,4.689006E4,3.3724188E5,9.412936E5,-1.4285153E5,-2.1326232E4,1.0789841E3,1.8284162E5,1.9094964E5,4.5415812E5,7.0169844E5,1.4003925E6,-1.5742758E5,-8.12879E3,-9.076898E4,9.957434E3,-1.7021502E4,1.1710639E5,3.43502E5,1.4004369E5,1.05881414E5,3.5578194E5,3.9387462E5,7.51173E5,1.04431575E6,6.070671E5,7.73229E4,1.7483385E6,-1.4061203E4,-2.445232E4,-3.6101833E3,1.062278E4,-1.0859091E4,-5.893365E3,-1.4481323E4,2.3063152E3,-7.798222E3,9.3639514E2,6.011111E3,2.0063021E4,3.635686E3,3.8494633E4,3.3984844E4,1.2801667E4,6.9253823E3,1.9765045E4,5.2655844E4,2.6984645E4,4.8516277E4,2.921055E4,1.4804752E5,5.9648465E4,1.1507796E5,9.63026E3,2.9499646E4,6.758662E4,1.9846092E5,2.2047553E4],"categories":[],"categories_nodes":[],"categories_segments":[],"categories_sizes":[],"default_left":[0,0,0,0,0,0,0,0,0,0,0,0,0,0,0,0,0,0,0,0,0,0,0,0,0,0,0,0,0,0,0,0,0,0,0,0,0,0,0,0,0,0,0,0,0,0,0,0,0,0,0,0,0,0,0,0,0,0,0,0,0],"id":1,"left_children":[1,3,5,7,9,11,13,15,17,19,21,23,25,27,29,31,33,35,37,39,41,43,45,47,49,51,53,55,57,-1,59,-1,-1,-1,-1,-1,-1,-1,-1,-1,-1,-1,-1,-1,-1,-1,-1,-1,-1,-1,-1,-1,-1,-1,-1,-1,-1,-1,-1,-1,-1],"loss_changes":[7.712377E13,1.8380017E13,1.9491363E13,3.718393E12,6.894295E12,3.966912E12,6.717199E12,2.612439E12,6.787E11,1.7430197E12,1.870281E12,1.4626823E12,2.0497018E12,9.223023E11,3.667168E12,1.7245552E12,4.2289116E11,4.863492E10,4.4147012E11,1.155616E12,5.2111186E11,7.2431016E11,4.8997178E11,2.2832402E11,3.8623773E11,8.895081E11,1.4860251E12,7.975385E11,6.594274E11,0E0,4.616297E12,0E0,0E0,0E0,0E0,0E0,0E0,0E0,0E0,0E0,0E0,0E0,0E0,0E0,0E0,0E0,0E0,0E0,0E0,0E0,0E0,0E0,0E0,0E0,0E0,0E0,0E0,0E0,0E0,0E0,0E0],"parents":[2147483647,0,0,1,1,2,2,3,3,4,4,5,5,6,6,7,7,8,8,9,9,10,10,11,11,12,12,13,13,14,14,15,15,16,16,17,17,18,18,19,19,20,20,21,21,22,22,23,23,24,24,25,25,26,26,27,27,28,28,30,30],"right_children":[2,4,6,8,10,12,14,16,18,20,22,24,26,28,30,32,34,36,38,40,42,44,46,48,50,52,54,56,58,-1,60,-1,-1,-1,-1,-1,-1,-1,-1,-1,-1,-1,-1,-1,-1,-1,-1,-1,-1,-1,-1,-1,-1,-1,-1,-1,-1,-1,-1,-1,-1],"split_conditions":[1.4E3,9.36E2,4E0,2.2E1,1E0,3E0,2.74706E3,5E0,1E0,2.6E1,9E0,1E0,2.045E3,1.2E2,3E0,3E0,1E0,7E0,5.13E2,1E0,1.152E3,1E0,9.6E1,1E0,9E0,4.52E2,1.4E1,5E0,1.9E1,7.73229E4,6E0,-1.4061203E4,-2.445232E4,-3.6101833E3,1.062278E4,-1.0859091E4,-5.893365E3,-1.4481323E4,2.3063152E3,-7.798222E3,9.3639514E2,6.011111E3,2.0063021E4,3.635686E3,3.8494633E4,3.3984844E4,1.2801667E4,6.9253823E3,1.9765045E4,5.2655844E4,2.6984645E4,4.8516277E4,2.921055E4,1.4804752E5,5.9648465E4,1.1507796E5,9.63026E3,2.9499646E4,6.758662E4,1.9846092E5,2.2047553E4],"split_indices":[2,2,1,3,20,1,2,8,8,3,6,20,2,4,5,8,15,11,2,8,2,8,4,15,6,4,3,1,3,0,0,0,0,0,0,0,0,0,0,0,0,0,0,0,0,0,0,0,0,0,0,0,0,0,0,0,0,0,0,0,0],"split_type":[0,0,0,0,0,0,0,0,0,0,0,0,0,0,0,0,0,0,0,0,0,0,0,0,0,0,0,0,0,0,0,0,0,0,0,0,0,0,0,0,0,0,0,0,0,0,0,0,0,0,0,0,0,0,0,0,0,0,0,0,0],"sum_hessian":[3.052E3,2.747E3,3.05E2,1.641E3,1.106E3,2.36E2,6.9E1,1.33E3,3.11E2,8.28E2,2.78E2,1.06E2,1.3E2,4.7E1,2.2E1,1.2E3,1.3E2,9.6E1,2.15E2,7.17E2,1.11E2,5.7E1,2.21E2,7.1E1,3.5E1,1.1E2,2E1,8E0,3.9E1,9E0,1.3E1,1.008E3,1.92E2,1.05E2,2.5E1,6E1,3.6E1,1.6E1,1.99E2,2.16E2,5.01E2,6.7E1,4.4E1,7E0,5E1,1.1E1,2.1E2,5.2E1,1.9E1,1E1,2.5E1,5.6E1,5.4E1,2E0,1.8E1,7E0,1E0,8E0,3.1E1,1.1E1,2E0],"tree_param":{"num_deleted":"0","num_feature":"27","num_nodes":"61","size_leaf_vector":"1"}},{"base_weights":[5.8977435E2,-4.743304E4,4.3185153E5,-1.1721887E5,3.1647445E4,3.0517066E5,8.5458744E5,3.835031E3,-1.3544198E5,-6.849898E3,1.5120719E5,1.7284842E5,4.1092112E5,6.361493E5,1.2733024E6,3.486234E4,-5.876431E4,-1.4539911E5,-2.9208203E4,-7.120205E4,2.0995752E4,5.5610194E5,1.3743619E5,9.566398E4,3.2241597E5,3.6561394E5,7.6344444E5,9.537406E5,5.487875E5,7.0363836E4,1.5892552E6,-6.316436E3,5.132761E3,-7.253148E3,1.6587602E4,-1.6926436E4,-8.899648E3,-4.3546655E3,1.3653958E4,-9.574912E3,-3.6578672E3,-9.939616E2,7.3490664E3,5.979606E4,8.968713E3,9.527589E3,2.2040938E4,1.3120374E4,1.9117646E3,4.7868945E4,2.4389967E4,4.117555E4,1.7749709E4,-1.0910179E4,8.3895586E4,1.0500864E5,9.148747E3,1.6651547E4,5.986402E4,1.8026867E5,2.0577715E4],"categories":[],"categories_nodes":[],"categories_segments":[],"categories_sizes":[],"default_left":[0,0,0,0,0,0,0,0,0,0,0,0,0,0,0,0,0,0,0,0,0,0,0,0,0,0,0,0,0,0,0,0,0,0,0,0,0,0,0,0,0,0,0,0,0,0,0,0,0,0,0,0,0,0,0,0,0,0,0,0,0],"id":2,"left_children":[1,3,5,7,9,11,13,15,17,19,21,23,25,27,29,31,33,35,37,39,41,43,45,47,49,51,53,55,57,-1,59,-1,-1,-1,-1,-1,-1,-1,-1,-1,-1,-1,-1,-1,-1,-1,-1,-1,-1,-1,-1,-1,-1,-1,-1,-1,-1,-1,-1,-1,-1],"loss_changes":[6.324934E13,1.5169088E13,1.6126298E13,3.2212506E12,5.9339576E12,3.2453448E12,5.5924207E12,3.7496812E11,1.3380794E12,1.7504161E12,1.674374E12,1.2043954E12,1.813185E12,8.083766E11,3.0214424E12,2.1145276E11,2.099615E11,1.5463707E12,2.6736814E11,2.4721896E11,1.1082641E12,1.4160573E11,1.04594355E12,1.9336318E11,3.2496838E11,9.5115385E11,1.01395254E12,6.515993E11,6.6260776E11,0E0,3.7629366E12,0E0,0E0,0E0,0E0,0E0,0E0,0E0,0E0,0E0,0E0,0E0,0E0,0E0,0E0,0E0,0E0,0E0,0E0,0E0,0E0,0E0,0E0,0E0,0E0,0E0,0E0,0E0,0E0,0E0,0E0],"parents":[2147483647,0,0,1,1,2,2,3,3,4,4,5,5,6,6,7,7,8,8,9,9,10,10,11,11,12,12,13,13,14,14,15,15,16,16,17,17,18,18,19,19,20,20,21,21,22,22,23,23,24,24,25,25,26,26,27,27,28,28,30,30],"right_children":[2,4,6,8,10,12,14,16,18,20,22,24,26,28,30,32,34,36,38,40,42,44,46,48,50,52,54,56,58,-1,60,-1,-1,-1,-1,-1,-1,-1,-1,-1,-1,-1,-1,-1,-1,-1,-1,-1,-1,-1,-1,-1,-1,-1,-1,-1,-1,-1,-1,-1,-1],"split_conditions":[1.4E3,8.87E2,4E0,1.1E1,1E0,3E0,2.74706E3,1E0,4E0,1E0,5E0,1E0,2.33E3,1.2E2,3E0,1E0,4.3E1,1E0,1E0,1.03E3,1.124E3,2.1E1,1.184E3,1E0,9E0,1E0,1E0,5E0,1.711E3,7.0363836E4,6E0,-6.316436E3,5.132761E3,-7.253148E3,1.6587602E4,-1.6926436E4,-8.899648E3,-4.3546655E3,1.3653958E4,-9.574912E3,-3.6578672E3,-9.939616E2,7.3490664E3,5.979606E4,8.968713E3,9.527589E3,2.2040938E4,1.3120374E4,1.9117646E3,4.7868945E4,2.4389967E4,4.117555E4,1.7749709E4,-1.0910179E4,8.3895586E4,1.0500864E5,9.148747E3,1.6651547E4,5.986402E4,1.8026867E5,2.0577715E4],"split_indices":[2,2,1,6,20,1,2,25,8,8,6,20,2,4,5,8,3,20,23,2,2,3,2,25,6,25,8,1,2,0,0,0,0,0,0,0,0,0,0,0,0,0,0,0,0,0,0,0,0,0,0,0,0,0,0,0,0,0,0,0,0],"split_type":[0,0,0,0,0,0,0,0,0,0,0,0,0,0,0,0,0,0,0,0,0,0,0,0,0,0,0,0,0,0,0,0,0,0,0,0,0,0,0,0,0,0,0,0,0,0,0,0,0,0,0,0,0,0,0,0,0,0,0,0,0],"sum_hessian":[3.052E3,2.747E3,3.05E2,1.459E3,1.288E3,2.36E2,6.9E1,1.91E2,1.268E3,9.75E2,3.13E2,1.06E2,1.3E2,4.7E1,2.2E1,1.28E2,6.3E1,1.159E3,1.09E2,2.94E2,6.81E2,9E0,3.04E2,7.1E1,3.5E1,1.17E2,1.3E1,8E0,3.9E1,9E0,1.3E1,1.8E1,1.1E2,6E1,3E0,8.13E2,3.46E2,1.01E2,8E0,1.71E2,1.23E2,4.29E2,2.52E2,8E0,1E0,2.03E2,1.01E2,4.8E1,2.3E1,1E1,2.5E1,9.3E1,2.4E1,1E0,1.2E1,7E0,1E0,5E0,3.4E1,1.1E1,2E0],"tree_param":{"num_deleted":"0","num_feature":"27","num_nodes":"61","size_leaf_vector":"1"}},{"base_weights":[7.8175494E2,-4.265877E4,3.9089216E5,-1.0904059E5,2.526867E4,3.1909828E5,1.0174798E6,-1.1837733E3,-1.24574555E5,-8.41586E3,1.3377573E5,1.6209294E5,4.116385E5,5.3017094E5,1.3876065E6,-1.7210219E4,1.24683016E5,-1.4324802E5,-7.838577E4,-6.803866E4,1.8492768E4,2.796293E5,9.930686E4,9.187142E4,2.9218156E5,2.9660044E5,5.3280506E5,-3.12675E4,6.731362E5,1.5803475E6,3.6611137E4,-3.7428782E3,8.1524663E3,1.8542715E4,8.540503E3,-1.5586835E4,-3.6945447E3,-1.295457E4,-5.813688E3,-7.523612E3,3.9050435E3,4.748289E3,-3.1024321E3,5.073682E4,2.304559E4,4.9539272E3,1.4435366E4,-2.436857E3,1.1198614E4,1.1779512E4,3.459476E4,5.3300914E4,2.310064E4,3.7106086E4,7.336639E4,-1.2185638E4,1.2024956E4,4.105847E3,7.268652E4,1.7356905E5,4.3219324E4],"categories":[],"categories_nodes":[],"categories_segments":[],"categories_sizes":[],"default_left":[0,0,0,0,0,0,0,0,0,0,0,0,0,0,0,0,0,0,0,0,0,0,0,0,0,0,0,0,0,0,0,0,0,0,0,0,0,0,0,0,0,0,0,0,0,0,0,0,0,0,0,0,0,0,0,0,0,0,0,0,0],"id":3,"left_children":[1,3,5,7,9,11,13,15,17,19,21,23,25,27,29,31,33,35,37,39,41,43,45,47,49,51,53,55,57,59,-1,-1,-1,-1,-1,-1,-1,-1,-1,-1,-1,-1,-1,-1,-1,-1,-1,-1,-1,-1,-1,-1,-1,-1,-1,-1,-1,-1,-1,-1,-1],"loss_changes":[5.1754645E13,1.2393894E13,1.3440786E13,2.3287195E12,4.968284E12,3.9433693E12,4.8556744E12,3.571725E11,1.0367124E12,1.6665916E12,1.5910557E12,9.231988E11,2.253373E12,1.2250403E12,2.7684483E12,3.164669E11,3.1881724E10,1.1533623E12,3.571168E11,2.5189679E11,1.0292957E12,5.661954E11,5.802185E11,1.6406033E11,2.9678738E11,1.2880089E12,2.424251E12,6.9556216E10,3.776866E11,1.74685E12,0E0,0E0,0E0,0E0,0E0,0E0,0E0,0E0,0E0,0E0,0E0,0E0,0E0,0E0,0E0,0E0,0E0,0E0,0E0,0E0,0E0,0E0,0E0,0E0,0E0,0E0,0E0,0E0,0E0,0E0,0E0],"parents":[2147483647,0,0,1,1,2,2,3,3,4,4,5,5,6,6,7,7,8,8,9,9,10,10,11,11,12,12,13,13,14,14,15,15,16,16,17,17,18,18,19,19,20,20,21,21,22,22,23,23,24,24,25,25,26,26,27,27,28,28,29,29],"right_children":[2,4,6,8,10,12,14,16,18,20,22,24,26,28,30,32,34,36,38,40,42,44,46,48,50,52,54,56,58,60,-1,-1,-1,-1,-1,-1,-1,-1,-1,-1,-1,-1,-1,-1,-1,-1,-1,-1,-1,-1,-1,-1,-1,-1,-1,-1,-1,-1,-1,-1,-1],"split_conditions":[1.4E3,8.64E2,2.74706E3,1.1E1,1E0,3E0,9E0,4.5E1,1E0,1E0,9E0,1E0,1.69E3,3E0,1E0,1E0,8.38E2,4E0,1E0,2.4E1,1E0,5E0,1.091E3,1E0,7E0,9E0,1E0,2E0,4.8E1,2E1,3.6611137E4,-3.7428782E3,8.1524663E3,1.8542715E4,8.540503E3,-1.5586835E4,-3.6945447E3,-1.295457E4,-5.813688E3,-7.523612E3,3.9050435E3,4.748289E3,-3.1024321E3,5.073682E4,2.304559E4,4.9539272E3,1.4435366E4,-2.436857E3,1.1198614E4,1.1779512E4,3.459476E4,5.3300914E4,2.310064E4,3.7106086E4,7.336639E4,-1.2185638E4,1.2024956E4,4.105847E3,7.268652E4,1.7356905E5,4.3219324E4],"split_indices":[2,2,2,6,20,1,11,3,20,8,6,20,2,1,25,20,4,8,7,3,25,6,2,8,11,6,20,5,4,6,0,0,0,0,0,0,0,0,0,0,0,0,0,0,0,0,0,0,0,0,0,0,0,0,0,0,0,0,0,0,0],"split_type":[0,0,0,0,0,0,0,0,0,0,0,0,0,0,0,0,0,0,0,0,0,0,0,0,0,0,0,0,0,0,0,0,0,0,0,0,0,0,0,0,0,0,0,0,0,0,0,0,0,0,0,0,0,0,0,0,0,0,0,0,0],"sum_hessian":[3.052E3,2.747E3,3.05E2,1.389E3,1.358E3,2.75E2,3E1,1.75E2,1.214E3,1.037E3,3.21E2,1.03E2,1.72E2,1.4E1,1.6E1,1.56E2,1.9E1,8.63E2,3.51E2,3.22E2,7.15E2,6E1,2.61E2,6.8E1,3.5E1,9E1,8.2E1,3E0,1.1E1,1.3E1,3E0,1.3E2,2.6E1,6E0,1.3E1,7.71E2,9.2E1,9.8E1,2.53E2,3.02E2,2E1,4.51E2,2.64E2,9E0,5.1E1,1.25E2,1.36E2,1E1,5.8E1,9E0,2.6E1,1.8E1,7.2E1,4.7E1,3.5E1,2E0,1E0,1E0,1E1,1.1E1,2E0],"tree_param":{"num_deleted":"0","num_feature":"27","num_nodes":"61","size_leaf_vector":"1"}},{"base_weights":[9.186783E2,-4.4874293E4,3.0475275E5,-7.7424445E4,5.220904E4,2.1841206E5,7.0176225E5,-1.07805414E5,-2.8919934E4,8.9130734E4,-3.5697062E4,1.3067381E5,3.2809128E5,5.2035344E5,1.0577304E6,-1.2170877E5,-1.4088537E4,-3.7116746E4,1.545218E5,1.8158953E5,5.726696E4,-4.059285E4,1.6139894E5,5.3608094E4,1.956436E5,3.1300775E5,1.25760016E5,8.282103E5,4.4008356E5,8.520867E5,2.1446595E5,-1.0696019E4,-1.9212709E4,-2.91206E3,1.7248094E4,-7.864371E3,-1.2264183E3,9.089163E3,3.1410318E4,1.0941255E4,2.6490025E4,4.9648105E4,5.07732E3,-7.846853E3,-2.2631313E3,2.1761941E4,-3.1741453E3,1.9813466E3,2.259938E4,2.3147357E4,5.808848E3,3.918048E4,1.807803E4,9.146466E4,6.8360063E3,3.2595521E4,5.9803695E4,3.941974E4,1.00896266E5],"categories":[],"categories_nodes":[],"categories_segments":[],"categories_sizes":[],"default_left":[0,0,0,0,0,0,0,0,0,0,0,0,0,0,0,0,0,0,0,0,0,0,0,0,0,0,0,0,0,0,0,0,0,0,0,0,0,0,0,0,0,0,0,0,0,0,0,0,0,0,0,0,0,0,0,0,0,0,0],"id":4,"left_children":[1,3,5,7,9,11,13,15,17,19,21,23,25,27,29,31,33,35,37,39,41,43,45,47,49,51,-1,53,55,57,-1,-1,-1,-1,-1,-1,-1,-1,-1,-1,-1,-1,-1,-1,-1,-1,-1,-1,-1,-1,-1,-1,-1,-1,-1,-1,-1,-1,-1],"loss_changes":[4.2491487E13,8.3908876E12,1.3557953E13,2.9264278E12,2.1680255E12,3.1327372E12,4.0344821E12,1.5905262E12,1.1590253E12,1.3742611E12,1.9760985E11,9.157959E11,1.6533181E12,8.463896E11,3.3135253E12,1.0844897E12,4.50942E11,7.5759334E11,3.06539E11,6.925905E11,9.7589815E11,1.3020342E11,6.119976E10,4.9653347E11,4.794142E11,1.4399434E12,0E0,5.2858192E11,5.4417215E11,1.1107387E12,0E0,0E0,0E0,0E0,0E0,0E0,0E0,0E0,0E0,0E0,0E0,0E0,0E0,0E0,0E0,0E0,0E0,0E0,0E0,0E0,0E0,0E0,0E0,0E0,0E0,0E0,0E0,0E0,0E0],"parents":[2147483647,0,0,1,1,2,2,3,3,4,4,5,5,6,6,7,7,8,8,9,9,10,10,11,11,12,12,13,13,14,14,15,15,16,16,17,17,18,18,19,19,20,20,21,21,22,22,23,23,24,24,25,25,27,27,28,28,29,29],"right_children":[2,4,6,8,10,12,14,16,18,20,22,24,26,28,30,32,34,36,38,40,42,44,46,48,50,52,-1,54,56,58,-1,-1,-1,-1,-1,-1,-1,-1,-1,-1,-1,-1,-1,-1,-1,-1,-1,-1,-1,-1,-1,-1,-1,-1,-1,-1,-1,-1,-1],"split_conditions":[1.302E3,2E0,4E0,8.58E2,1E0,3E0,2.74706E3,4E0,3.5E1,9E0,4.3E1,2E0,1E1,1.2E2,1E0,3E0,1E0,1E0,1.124E3,1E0,8.2E1,1E0,4.7E1,2.3E1,1.3E1,1E0,1.25760016E5,5E0,2.4E1,6E0,2.1446595E5,-1.0696019E4,-1.9212709E4,-2.91206E3,1.7248094E4,-7.864371E3,-1.2264183E3,9.089163E3,3.1410318E4,1.0941255E4,2.6490025E4,4.9648105E4,5.07732E3,-7.846853E3,-2.2631313E3,2.1761941E4,-3.1741453E3,1.9813466E3,2.259938E4,2.3147357E4,5.808848E3,3.918048E4,1.807803E4,9.146466E4,6.8360063E3,3.2595521E4,5.9803695E4,3.941974E4,1.00896266E5],"split_indices":[2,5,1,2,25,1,2,8,3,6,3,5,0,4,23,8,23,8,2,20,4,8,3,3,11,10,0,1,3,11,0,0,0,0,0,0,0,0,0,0,0,0,0,0,0,0,0,0,0,0,0,0,0,0,0,0,0,0,0],"split_type":[0,0,0,0,0,0,0,0,0,0,0,0,0,0,0,0,0,0,0,0,0,0,0,0,0,0,0,0,0,0,0,0,0,0,0,0,0,0,0,0,0,0,0,0,0,0,0,0,0,0,0,0,0,0,0,0,0,0,0],"sum_hessian":[3.052E3,2.653E3,3.99E2,1.987E3,6.66E2,3.29E2,7E1,1.221E3,7.66E2,4.69E2,1.97E2,1.84E2,1.45E2,4.8E1,2.2E1,1.063E3,1.58E2,7.34E2,3.2E1,1.19E2,3.5E2,1.93E2,4E0,8.5E1,9.9E1,1.44E2,1E0,8E0,4E1,2E1,2E0,8.81E2,1.82E2,1.47E2,1.1E1,2.74E2,4.6E2,2.4E1,8E0,6.5E1,5.4E1,4E0,3.46E2,6.1E1,1.32E2,3E0,1E0,7.2E1,1.3E1,7.8E1,2.1E1,8.9E1,5.5E1,7E0,1E0,2.5E1,1.5E1,6E0,1.4E1],"tree_param":{"num_deleted":"0","num_feature":"27","num_nodes":"59","size_leaf_vector":"1"}},{"base_weights":[1.1211176E3,-4.0342973E4,2.7623256E5,-8.893075E4,1.3077859E4,1.9728769E5,6.392689E5,7.460149E2,-1.0184777E5,-1.4410495E4,1.0472368E5,1.1789582E5,2.965357E5,4.4073122E5,9.284255E5,-1.2980036E4,1.0845821E5,-1.1832753E5,-6.110813E4,-2.923087E4,5.950701E4,1.8225562E5,5.2587535E4,4.853311E4,1.763688E5,2.8210188E5,1.19472E5,3.56756E5,6.905714E5,7.6887956E5,2.0016822E5,-3.0120056E3,7.0661533E3,1.6717037E4,7.1355127E3,-1.2850867E4,-3.254074E3,-1.0632064E4,-4.223614E3,-4.0418474E3,4.9039897E3,1.7863686E4,4.441219E3,4.3786406E4,1.56900625E4,3.1838828E4,4.455503E3,1.785926E3,2.0500867E4,2.0861922E4,5.254367E3,3.5305965E4,1.630251E4,6.0451082E4,1.4071437E4,8.454694E3,9.38218E4,2.4932383E4,8.807108E4],"categories":[],"categories_nodes":[],"categories_segments":[],"categories_sizes":[],"default_left":[0,0,0,0,0,0,0,0,0,0,0,0,0,0,0,0,0,0,0,0,0,0,0,0,0,0,0,0,0,0,0,0,0,0,0,0,0,0,0,0,0,0,0,0,0,0,0,0,0,0,0,0,0,0,0,0,0,0,0],"id":5,"left_children":[1,3,5,7,9,11,13,15,17,19,21,23,25,27,29,31,33,35,37,39,41,43,45,47,49,51,-1,53,55,57,-1,-1,-1,-1,-1,-1,-1,-1,-1,-1,-1,-1,-1,-1,-1,-1,-1,-1,-1,-1,-1,-1,-1,-1,-1,-1,-1,-1,-1],"loss_changes":[3.4837467E13,6.889885E12,1.1337822E13,1.6101902E12,3.1882879E12,2.56527E12,3.6668178E12,2.616173E11,8.084951E11,1.0687419E12,1.1707432E12,7.417713E11,1.555745E12,6.767709E11,3.255493E12,2.2720637E11,3.1639601E10,7.504428E11,2.9585362E11,7.1302E11,2.8518004E11,6.895703E11,3.615824E11,4.0911346E11,3.883797E11,1.1676083E12,0E0,1.7883238E12,1.4214753E12,1.2910833E12,0E0,0E0,0E0,0E0,0E0,0E0,0E0,0E0,0E0,0E0,0E0,0E0,0E0,0E0,0E0,0E0,0E0,0E0,0E0,0E0,0E0,0E0,0E0,0E0,0E0,0E0,0E0,0E0,0E0],"parents":[2147483647,0,0,1,1,2,2,3,3,4,4,5,5,6,6,7,7,8,8,9,9,10,10,11,11,12,12,13,13,14,14,15,15,16,16,17,17,18,18,19,19,20,20,21,21,22,22,23,23,24,24,25,25,27,27,28,28,29,29],"right_children":[2,4,6,8,10,12,14,16,18,20,22,24,26,28,30,32,34,36,38,40,42,44,46,48,50,52,-1,54,56,58,-1,-1,-1,-1,-1,-1,-1,-1,-1,-1,-1,-1,-1,-1,-1,-1,-1,-1,-1,-1,-1,-1,-1,-1,-1,-1,-1,-1,-1],"split_conditions":[1.302E3,8.64E2,4E0,1.1E1,1E0,3E0,3E0,4.5E1,1E0,2.4E1,1.2E1,2E0,1E1,2.6E1,1E0,1E0,8.38E2,4E0,7E2,4E0,3E0,5E0,2E0,2.3E1,1.3E1,1E0,1.19472E5,2.9E2,1.646E3,6E0,2.0016822E5,-3.0120056E3,7.0661533E3,1.6717037E4,7.1355127E3,-1.2850867E4,-3.254074E3,-1.0632064E4,-4.223614E3,-4.0418474E3,4.9039897E3,1.7863686E4,4.441219E3,4.3786406E4,1.56900625E4,3.1838828E4,4.455503E3,1.785926E3,2.0500867E4,2.0861922E4,5.254367E3,3.5305965E4,1.630251E4,6.0451082E4,1.4071437E4,8.454694E3,9.38218E4,2.4932383E4,8.807108E4],"split_indices":[2,2,1,6,20,1,5,3,20,3,6,5,0,3,23,20,4,8,2,8,0,6,0,3,11,10,0,4,2,11,0,0,0,0,0,0,0,0,0,0,0,0,0,0,0,0,0,0,0,0,0,0,0,0,0,0,0,0,0],"split_type":[0,0,0,0,0,0,0,0,0,0,0,0,0,0,0,0,0,0,0,0,0,0,0,0,0,0,0,0,0,0,0,0,0,0,0,0,0,0,0,0,0,0,0,0,0,0,0,0,0,0,0,0,0,0,0,0,0,0,0],"sum_hessian":[3.052E3,2.653E3,3.99E2,1.389E3,1.264E3,3.29E2,7E1,1.75E2,1.214E3,9.73E2,2.91E2,1.84E2,1.45E2,4.3E1,2.7E1,1.56E2,1.9E1,8.63E2,3.51E2,8.11E2,1.62E2,1.16E2,1.75E2,8.5E1,9.9E1,1.44E2,1E0,3.4E1,9E0,2.5E1,2E0,1.3E2,2.6E1,6E0,1.3E1,7.71E2,9.2E1,1.02E2,2.49E2,7.1E2,1.01E2,1.7E1,1.45E2,9E0,1.07E2,4E0,1.71E2,7.2E1,1.3E1,7.8E1,2.1E1,8.9E1,5.5E1,1.5E1,1.9E1,3E0,6E0,5E0,2E1],"tree_param":{"num_deleted":"0","num_feature":"27","num_nodes":"59","size_leaf_vector":"1"}},{"base_weights":[1.2793442E3,-1.9026396E4,4.6926066E5,-6.193103E4,7.583629E4,3.628055E5,7.872249E5,1.1259821E4,-7.806465E4,2.126911E5,5.3221355E4,2.2670702E5,5.593953E5,3.8886972E5,1.0924074E6,6.3421168E4,6.0804395E3,-1.05909664E5,-4.981978E4,1.0896039E5,3.1963184E5,7.821333E4,-1.6820105E4,1.3273122E5,5.83718E5,9.670734E4,4.7099934E5,-4.106689E4,4.9977612E5,1.2629711E6,2.2233245E5,3.8425684E3,-5.218777E3,-1.1449603E4,-2.0343265E3,-7.567229E3,-2.2489167E3,9.395579E3,5.4963215E4,2.8039441E4,8.282853E4,3.7174246E3,1.2145687E4,-3.0434324E3,9.3416875E3,-5.79914E2,4.3788465E4,3.486871E4,7.606343E4,5.177731E4,2.54263E4,-1.1624415E4,9.223244E3,6.8295E2,5.4396855E4,1.3917128E5,3.2701416E4,2.839401E4,1.8754781E3],"categories":[],"categories_nodes":[],"categories_segments":[],"categories_sizes":[],"default_left":[0,0,0,0,0,0,0,0,0,0,0,0,0,0,0,0,0,0,0,0,0,0,0,0,0,0,0,0,0,0,0,0,0,0,0,0,0,0,0,0,0,0,0,0,0,0,0,0,0,0,0,0,0,0,0,0,0,0,0],"id":6,"left_children":[1,3,5,7,9,11,13,15,17,19,21,23,25,27,29,-1,31,33,35,37,39,41,43,45,47,-1,49,51,53,55,57,-1,-1,-1,-1,-1,-1,-1,-1,-1,-1,-1,-1,-1,-1,-1,-1,-1,-1,-1,-1,-1,-1,-1,-1,-1,-1,-1,-1],"loss_changes":[2.9020696E13,1.191773E13,4.0132044E12,2.3814377E12,2.8112863E12,2.4684727E12,3.3438984E12,1.1738182E12,1.2939868E12,1.3961753E12,1.3736873E12,1.9019955E12,9.499564E11,7.357651E11,2.2420568E12,0E0,6.861513E11,6.082097E11,5.790943E11,3.9136985E11,1.025123E12,1.0212475E12,3.135067E11,2.0316438E12,2.337462E11,0E0,2.1302713E11,5.0805793E10,2.5769935E11,1.2318419E12,4.4842516E10,0E0,0E0,0E0,0E0,0E0,0E0,0E0,0E0,0E0,0E0,0E0,0E0,0E0,0E0,0E0,0E0,0E0,0E0,0E0,0E0,0E0,0E0,0E0,0E0,0E0,0E0,0E0,0E0],"parents":[2147483647,0,0,1,1,2,2,3,3,4,4,5,5,6,6,7,7,8,8,9,9,10,10,11,11,12,12,13,13,14,14,16,16,17,17,18,18,19,19,20,20,21,21,22,22,23,23,24,24,26,26,27,27,28,28,29,29,30,30],"right_children":[2,4,6,8,10,12,14,16,18,20,22,24,26,28,30,-1,32,34,36,38,40,42,44,46,48,-1,50,52,54,56,58,-1,-1,-1,-1,-1,-1,-1,-1,-1,-1,-1,-1,-1,-1,-1,-1,-1,-1,-1,-1,-1,-1,-1,-1,-1,-1,-1,-1],"split_conditions":[1.69E3,1.035E3,2.74706E3,1.2E1,9E0,1E0,9E0,8.2E1,8E2,1E0,1E0,1E0,1.2E1,3E0,1E0,6.3421168E4,1E0,4E0,1E0,1E0,1.2E1,2E0,4E0,1E0,1.8E2,9.670734E4,3.7E1,2E0,4.8E1,2E1,6E0,3.8425684E3,-5.218777E3,-1.1449603E4,-2.0343265E3,-7.567229E3,-2.2489167E3,9.395579E3,5.4963215E4,2.8039441E4,8.282853E4,3.7174246E3,1.2145687E4,-3.0434324E3,9.3416875E3,-5.79914E2,4.3788465E4,3.486871E4,7.606343E4,5.177731E4,2.54263E4,-1.1624415E4,9.223244E3,6.8295E2,5.4396855E4,1.3917128E5,3.2701416E4,2.839401E4,1.8754781E3],"split_indices":[2,2,2,6,6,20,11,4,2,20,25,23,3,1,25,0,25,8,8,13,11,5,8,15,4,0,3,5,4,6,0,0,0,0,0,0,0,0,0,0,0,0,0,0,0,0,0,0,0,0,0,0,0,0,0,0,0,0,0],"split_type":[0,0,0,0,0,0,0,0,0,0,0,0,0,0,0,0,0,0,0,0,0,0,0,0,0,0,0,0,0,0,0,0,0,0,0,0,0,0,0,0,0,0,0,0,0,0,0,0,0,0,0,0,0,0,0,0,0,0,0],"sum_hessian":[3.052E3,2.926E3,1.26E2,2.015E3,9.11E2,9.6E1,3E1,3.64E2,1.651E3,1.28E2,7.83E2,5.8E1,3.8E1,1.4E1,1.6E1,2E0,3.62E2,8.3E2,8.21E2,6.6E1,6.2E1,5.77E2,2.06E2,4.7E1,1.1E1,5E0,3.3E1,3E0,1.1E1,1.3E1,3E0,2.33E2,1.29E2,7.54E2,7.6E1,4.21E2,4E2,6.5E1,1E0,5.9E1,3E0,2.97E2,2.8E2,1.84E2,2.2E1,3.3E1,1.4E1,6E0,5E0,2.6E1,7E0,2E0,1E0,1E0,1E1,1.1E1,2E0,2E0,1E0],"tree_param":{"num_deleted":"0","num_feature":"27","num_nodes":"59","size_leaf_vector":"1"}},{"base_weights":[1.4196669E3,-2.8286375E4,2.6818694E5,-5.9356098E4,3.9417254E4,2.1683627E5,7.1672244E5,-7.517382E4,4.7079004E3,1.4095357E4,1.1359238E5,1.4167223E5,3.133689E5,3.5349462E5,9.950574E5,-8.371924E4,3.5012417E3,5.9193094E4,-4.0424816E1,5.499519E3,1.9041325E5,2.3069617E5,9.094601E4,8.347503E4,4.068138E5,8.562922E5,2.7215866E5,-3.75605E4,4.5438847E5,7.9032706E5,2.1353712E5,-7.2072554E3,-1.522876E4,8.244539E3,-2.0555684E3,5.3019785E3,-1.7162548E3,-7.426463E2,8.648833E3,8.052974E3,2.8152822E4,9.782292E3,3.2545998E4,-1.6585371E3,1.0852352E4,4.9066094E3,3.4400586E4,2.927E4,8.731974E4,1.450856E4,9.3716664E4,2.0347006E4,4.3251074E4,-1.0849454E4,8.762081E3,9.040803E3,5.1814375E4,9.088128E4,2.0766658E4],"categories":[],"categories_nodes":[],"categories_segments":[],"categories_sizes":[],"default_left":[0,0,0,0,0,0,0,0,0,0,0,0,0,0,0,0,0,0,0,0,0,0,0,0,0,0,0,0,0,0,0,0,0,0,0,0,0,0,0,0,0,0,0,0,0,0,0,0,0,0,0,0,0,0,0,0,0,0,0],"id":7,"left_children":[1,3,5,7,9,11,13,15,17,19,21,23,25,27,29,31,33,-1,35,37,39,41,43,45,47,49,51,53,55,57,-1,-1,-1,-1,-1,-1,-1,-1,-1,-1,-1,-1,-1,-1,-1,-1,-1,-1,-1,-1,-1,-1,-1,-1,-1,-1,-1,-1,-1],"loss_changes":[2.420139E13,5.7828484E12,6.892565E12,1.9094983E12,1.6230895E12,1.958201E12,2.782321E12,1.0161561E12,1.0428578E12,9.780305E11,5.624538E11,2.3886297E12,2.4518307E12,6.0889275E11,2.2811236E12,1.0775083E12,2.8466856E11,0E0,3.388732E11,6.4655485E11,2.7768953E11,4.0886757E11,3.5336474E11,1.1485176E12,1.2345981E12,3.2417828E11,1.1566202E12,4.5024846E10,2.3162388E11,9.158609E11,0E0,0E0,0E0,0E0,0E0,0E0,0E0,0E0,0E0,0E0,0E0,0E0,0E0,0E0,0E0,0E0,0E0,0E0,0E0,0E0,0E0,0E0,0E0,0E0,0E0,0E0,0E0,0E0,0E0],"parents":[2147483647,0,0,1,1,2,2,3,3,4,4,5,5,6,6,7,7,8,8,9,9,10,10,11,11,12,12,13,13,14,14,15,15,16,16,18,18,19,19,20,20,21,21,22,22,23,23,24,24,25,25,26,26,27,27,28,28,29,29],"right_children":[2,4,6,8,10,12,14,16,18,20,22,24,26,28,30,32,34,-1,36,38,40,42,44,46,48,50,52,54,56,58,-1,-1,-1,-1,-1,-1,-1,-1,-1,-1,-1,-1,-1,-1,-1,-1,-1,-1,-1,-1,-1,-1,-1,-1,-1,-1,-1,-1,-1],"split_conditions":[1.4E3,1.001E3,2.74706E3,2.2E1,1E0,1E0,9E0,5E0,8.2E1,1E0,8E0,2.6E1,1.2E1,3E0,1E0,3E0,6E0,5.9193094E4,9E0,2.6E1,1.106E3,1.173E3,1.6E1,1E0,1.819E3,3E0,1.711E3,2E0,7E0,1E0,2.1353712E5,-7.2072554E3,-1.522876E4,8.244539E3,-2.0555684E3,5.3019785E3,-1.7162548E3,-7.426463E2,8.648833E3,8.052974E3,2.8152822E4,9.782292E3,3.2545998E4,-1.6585371E3,1.0852352E4,4.9066094E3,3.4400586E4,2.927E4,8.731974E4,1.450856E4,9.3716664E4,2.0347006E4,4.3251074E4,-1.0849454E4,8.762081E3,9.040803E3,5.1814375E4,9.088128E4,2.0766658E4],"split_indices":[2,2,2,3,20,20,11,8,4,23,6,3,3,1,23,8,11,0,6,3,2,2,3,23,2,1,2,5,3,25,0,0,0,0,0,0,0,0,0,0,0,0,0,0,0,0,0,0,0,0,0,0,0,0,0,0,0,0,0],"split_type":[0,0,0,0,0,0,0,0,0,0,0,0,0,0,0,0,0,0,0,0,0,0,0,0,0,0,0,0,0,0,0,0,0,0,0,0,0,0,0,0,0,0,0,0,0,0,0,0,0,0,0,0,0,0,0,0,0,0,0],"sum_hessian":[3.052E3,2.747E3,3.05E2,1.883E3,8.64E2,2.75E2,3E1,1.51E3,3.73E2,6.45E2,2.19E2,1.56E2,1.19E2,1.4E1,1.6E1,1.362E3,1.48E2,2E0,3.71E2,6.16E2,2.9E1,3.4E1,1.85E2,1.29E2,2.7E1,7E0,1.12E2,3E0,1.1E1,1.5E1,1E0,1.166E3,1.96E2,3.4E1,1.14E2,9E1,2.81E2,5.32E2,8.4E1,1.4E1,1.5E1,1.5E1,1.9E1,2.6E1,1.59E2,1.15E2,1.4E1,2.3E1,4E0,1E0,6E0,8E1,3.2E1,2E0,1E0,2E0,9E0,1.2E1,3E0],"tree_param":{"num_deleted":"0","num_feature":"27","num_nodes":"59","size_leaf_vector":"1"}},{"base_weights":[1.5573708E3,-2.9962516E4,2.1068792E5,-5.322373E4,3.9412688E4,1.5000525E5,4.897667E5,-8.259076E4,-3.043711E4,6.639734E4,-2.4840855E4,8.8988695E4,2.2629331E5,3.342544E5,7.1665144E5,-9.412934E4,-1.1263582E4,-3.640695E4,1.06754695E5,1.3377544E5,4.3172934E4,-2.9153695E4,1.474655E5,2.1719202E5,6.8528625E4,2.1378556E5,1.0199578E5,2.6574344E5,5.406174E5,5.738635E5,1.7152634E5,-1.1136495E4,-5.633799E3,-2.9131746E3,1.5495557E4,-6.1532046E3,-1.4938226E3,1.209438E3,1.7642553E4,9.845164E3,2.2391842E4,3.997497E4,3.7910525E3,-1.6473092E3,-6.6341743E3,1.9387547E4,-1.9087203E3,1.4524528E3,2.9520021E4,3.0137966E3,1.0899384E4,2.473424E4,8.24042E3,4.658012E4,9.241008E3,5.229319E3,7.4242875E4,1.6610201E4,6.630399E4],"categories":[],"categories_nodes":[],"categories_segments":[],"categories_sizes":[],"default_left":[0,0,0,0,0,0,0,0,0,0,0,0,0,0,0,0,0,0,0,0,0,0,0,0,0,0,0,0,0,0,0,0,0,0,0,0,0,0,0,0,0,0,0,0,0,0,0,0,0,0,0,0,0,0,0,0,0,0,0],"id":8,"left_children":[1,3,5,7,9,11,13,15,17,19,21,23,25,27,29,31,33,35,37,39,41,43,45,47,49,51,-1,53,55,57,-1,-1,-1,-1,-1,-1,-1,-1,-1,-1,-1,-1,-1,-1,-1,-1,-1,-1,-1,-1,-1,-1,-1,-1,-1,-1,-1,-1,-1],"loss_changes":[2.013099E13,4.2849946E12,6.7006313E12,1.3278065E12,1.1581338E12,1.5159588E12,2.2655743E12,7.133169E11,9.220002E11,7.296883E11,1.5143882E11,4.7038018E11,1.2312825E12,4.7841228E11,3.0081863E12,4.8028975E11,3.6685785E11,5.789398E11,3.078341E11,3.6005793E11,6.434804E11,9.039112E10,4.2349076E10,3.909554E11,2.4682653E11,6.188858E11,0E0,1.1706394E12,9.466696E11,8.3529826E11,0E0,0E0,0E0,0E0,0E0,0E0,0E0,0E0,0E0,0E0,0E0,0E0,0E0,0E0,0E0,0E0,0E0,0E0,0E0,0E0,0E0,0E0,0E0,0E0,0E0,0E0,0E0,0E0,0E0],"parents":[2147483647,0,0,1,1,2,2,3,3,4,4,5,5,6,6,7,7,8,8,9,9,10,10,11,11,12,12,13,13,14,14,15,15,16,16,17,17,18,18,19,19,20,20,21,21,22,22,23,23,24,24,25,25,27,27,28,28,29,29],"right_children":[2,4,6,8,10,12,14,16,18,20,22,24,26,28,30,32,34,36,38,40,42,44,46,48,50,52,-1,54,56,58,-1,-1,-1,-1,-1,-1,-1,-1,-1,-1,-1,-1,-1,-1,-1,-1,-1,-1,-1,-1,-1,-1,-1,-1,-1,-1,-1,-1,-1],"split_conditions":[1.302E3,2E0,4E0,7.92E2,1E0,3E0,3E0,4E0,3.5E1,9E0,4.3E1,9E0,1E1,2.6E1,1E0,1E0,1E0,1E0,8E0,1.2E3,8.2E1,1.2E1,4.7E1,2.1E1,2E0,1E0,1.0199578E5,2.9E2,1.646E3,6E0,1.7152634E5,-1.1136495E4,-5.633799E3,-2.9131746E3,1.5495557E4,-6.1532046E3,-1.4938226E3,1.209438E3,1.7642553E4,9.845164E3,2.2391842E4,3.997497E4,3.7910525E3,-1.6473092E3,-6.6341743E3,1.9387547E4,-1.9087203E3,1.4524528E3,2.9520021E4,3.0137966E3,1.0899384E4,2.473424E4,8.24042E3,4.658012E4,9.241008E3,5.229319E3,7.4242875E4,1.6610201E4,6.630399E4],"split_indices":[2,5,1,2,25,1,5,8,3,6,3,6,0,3,23,20,23,8,11,2,4,11,3,3,5,25,0,4,2,11,0,0,0,0,0,0,0,0,0,0,0,0,0,0,0,0,0,0,0,0,0,0,0,0,0,0,0,0,0],"split_type":[0,0,0,0,0,0,0,0,0,0,0,0,0,0,0,0,0,0,0,0,0,0,0,0,0,0,0,0,0,0,0,0,0,0,0,0,0,0,0,0,0,0,0,0,0,0,0,0,0,0,0,0,0,0,0,0,0,0,0],"sum_hessian":[3.052E3,2.653E3,3.99E2,1.987E3,6.66E2,3.29E2,7E1,8.67E2,1.12E3,4.69E2,1.97E2,1.84E2,1.45E2,4.3E1,2.7E1,7.46E2,1.21E2,1.074E3,4.6E1,1.19E2,3.5E2,1.93E2,4E0,2.4E1,1.6E2,1.44E2,1E0,3.4E1,9E0,2.5E1,2E0,5.11E2,2.35E2,1.1E2,1.1E1,4.94E2,5.8E2,2E1,2.6E1,8.7E1,3.2E1,4E0,3.46E2,1.45E2,4.8E1,3E0,1E0,7E0,1.7E1,8.3E1,7.7E1,1.14E2,3E1,1.5E1,1.9E1,3E0,6E0,5E0,2E1],"tree_param":{"num_deleted":"0","num_feature":"27","num_nodes":"59","size_leaf_vector":"1"}},{"base_weights":[1.6184089E3,-1.3779221E4,3.564786E5,-3.9426082E4,7.8113484E4,2.723506E5,6.082185E5,-5.4345297E4,1.8275584E4,1.8896508E5,5.840785E4,1.6601145E5,4.262393E5,2.8901847E5,8.54088E5,-6.255291E4,5.9046226E3,-4.962527E3,6.755477E4,4.033569E5,1.5052592E5,5.203637E4,2.317232E5,9.050327E4,4.5420988E5,7.7391836E4,3.5234772E5,-3.855803E4,3.7412575E5,6.6461356E5,1.9428395E5,-5.3468203E3,-1.2778178E4,-4.909105E2,1.2693064E4,-8.2130304E2,5.175993E4,-4.3557554E3,9.320276E3,5.82006E4,1.4156408E4,-2.5889543E3,1.723317E4,1.6524237E3,8.365683E3,2.2354182E3,2.8606467E4,-2.5575789E3,3.475823E4,2.5250848E4,6.1382656E4,3.9399375E4,1.677489E4,-1.0327075E4,7.7790063E3,6.331738E3,4.299557E4,7.538239E4,2.6760876E3],"categories":[],"categories_nodes":[],"categories_segments":[],"categories_sizes":[],"default_left":[0,0,0,0,0,0,0,0,0,0,0,0,0,0,0,0,0,0,0,0,0,0,0,0,0,0,0,0,0,0,0,0,0,0,0,0,0,0,0,0,0,0,0,0,0,0,0,0,0,0,0,0,0,0,0,0,0,0,0],"id":9,"left_children":[1,3,5,7,9,11,13,15,17,19,21,23,25,27,29,31,33,35,37,39,41,43,45,47,49,-1,51,53,55,57,-1,-1,-1,-1,-1,-1,-1,-1,-1,-1,-1,-1,-1,-1,-1,-1,-1,-1,-1,-1,-1,-1,-1,-1,-1,-1,-1,-1,-1],"loss_changes":[1.668652E13,6.9013146E12,2.5240053E12,1.9715103E12,1.3847956E12,1.5165859E12,2.1860807E12,8.9987953E11,5.397034E11,7.3042415E11,5.886678E11,1.2428115E12,7.2924214E11,4.326127E11,2.215702E12,9.418965E11,2.872377E11,5.4949813E11,4.3438067E11,5.723757E11,3.2375256E11,5.89268E11,2.0977608E11,1.4412812E12,2.313426E11,0E0,1.9529361E11,3.8150242E10,1.8100532E11,8.9027615E11,0E0,0E0,0E0,0E0,0E0,0E0,0E0,0E0,0E0,0E0,0E0,0E0,0E0,0E0,0E0,0E0,0E0,0E0,0E0,0E0,0E0,0E0,0E0,0E0,0E0,0E0,0E0,0E0,0E0],"parents":[2147483647,0,0,1,1,2,2,3,3,4,4,5,5,6,6,7,7,8,8,9,9,10,10,11,11,12,12,13,13,14,14,15,15,16,16,17,17,18,18,19,19,20,20,21,21,22,22,23,23,24,24,26,26,27,27,28,28,29,29],"right_children":[2,4,6,8,10,12,14,16,18,20,22,24,26,28,30,32,34,36,38,40,42,44,46,48,50,-1,52,54,56,58,-1,-1,-1,-1,-1,-1,-1,-1,-1,-1,-1,-1,-1,-1,-1,-1,-1,-1,-1,-1,-1,-1,-1,-1,-1,-1,-1,-1,-1],"split_conditions":[1.69E3,1.115E3,2.74706E3,2E0,9E0,1E0,9E0,5E0,1E0,2.6E2,1E0,1E0,1.2E1,3E0,1E0,3E0,1E0,1E0,1E0,1E0,2E0,2E0,1.36E2,1E0,1.8E2,7.7391836E4,3.7E1,2E0,7E0,4E0,1.9428395E5,-5.3468203E3,-1.2778178E4,-4.909105E2,1.2693064E4,-8.2130304E2,5.175993E4,-4.3557554E3,9.320276E3,5.82006E4,1.4156408E4,-2.5889543E3,1.723317E4,1.6524237E3,8.365683E3,2.2354182E3,2.8606467E4,-2.5575789E3,3.475823E4,2.5250848E4,6.1382656E4,3.9399375E4,1.677489E4,-1.0327075E4,7.7790063E3,6.331738E3,4.299557E4,7.538239E4,2.6760876E3],"split_indices":[2,2,2,5,6,20,11,8,20,4,23,23,3,1,23,8,23,13,8,10,9,5,4,15,4,0,3,5,3,5,0,0,0,0,0,0,0,0,0,0,0,0,0,0,0,0,0,0,0,0,0,0,0,0,0,0,0,0,0],"split_type":[0,0,0,0,0,0,0,0,0,0,0,0,0,0,0,0,0,0,0,0,0,0,0,0,0,0,0,0,0,0,0,0,0,0,0,0,0,0,0,0,0,0,0,0,0,0,0,0,0,0,0,0,0,0,0,0,0,0,0],"sum_hessian":[3.052E3,2.926E3,1.26E2,2.288E3,6.38E2,9.6E1,3E1,1.818E3,4.7E2,9.5E1,5.43E2,5.8E1,3.8E1,1.4E1,1.6E1,1.6E3,2.18E2,3.2E2,1.5E2,1.3E1,8.2E1,5.25E2,1.8E1,4.7E1,1.1E1,5E0,3.3E1,3E0,1.1E1,1.5E1,1E0,1.406E3,1.94E2,2.01E2,1.7E1,3.19E2,1E0,2.8E1,1.22E2,7E0,6E0,9E0,7.3E1,2.48E2,2.77E2,4E0,1.4E1,3.3E1,1.4E1,6E0,5E0,2.6E1,7E0,2E0,1E0,2E0,9E0,1.3E1,2E0],"tree_param":{"num_deleted":"0","num_feature":"27","num_nodes":"59","size_leaf_vector":"1"}},{"base_weights":[1.7020146E3,-2.4493008E4,1.7550173E5,-4.3200688E4,3.1302135E4,1.4300616E5,5.576909E5,-2.5835543E4,-7.4014414E4,5.4457348E4,-2.382035E4,7.5750305E4,2.0701439E5,2.6323522E5,7.846994E5,-3.515355E4,3.566178E4,-1.1311384E5,-5.7999516E4,5.64681E3,7.939377E4,-2.7839113E4,1.3687177E5,1.8107728E5,5.8605207E4,2.3671469E5,6.465383E4,-3.533925E4,3.4082378E5,6.030309E5,1.8456975E5,-7.2627866E3,-2.2664905E3,2.0815332E3,1.7540209E4,-1.5347673E2,-1.1759173E4,1.9711442E3,-6.104681E3,-1.1393923E4,1.5240002E3,4.57637E4,7.422375E3,-1.6487461E3,-6.1094263E3,2.4980525E4,4.618708E3,5.992516E2,2.488329E4,7.599893E3,-1.5104515E3,5.69648E4,2.1000934E4,3.565477E2,4.182532E4,-9.6386045E3,7.390056E3,5.9096206E3,3.9125965E4,7.0987695E4,1.0502351E4],"categories":[],"categories_nodes":[],"categories_segments":[],"categories_sizes":[],"default_left":[0,0,0,0,0,0,0,0,0,0,0,0,0,0,0,0,0,0,0,0,0,0,0,0,0,0,0,0,0,0,0,0,0,0,0,0,0,0,0,0,0,0,0,0,0,0,0,0,0,0,0,0,0,0,0,0,0,0,0,0,0],"id":10,"left_children":[1,3,5,7,9,11,13,15,17,19,21,23,25,27,29,31,33,35,37,39,41,43,45,47,49,51,53,55,57,59,-1,-1,-1,-1,-1,-1,-1,-1,-1,-1,-1,-1,-1,-1,-1,-1,-1,-1,-1,-1,-1,-1,-1,-1,-1,-1,-1,-1,-1,-1,-1],"loss_changes":[1.3903654E13,2.7715914E12,4.8880314E12,1.061836E12,8.52638E11,1.5771422E12,1.8656002E12,7.3072404E11,4.4177975E11,5.7161705E11,1.31675546E11,3.1805106E11,7.838153E11,3.595339E11,2.1637366E12,5.159657E11,3.4488975E11,1.0324463E11,1.2197547E11,1.8529034E11,5.74201E11,7.222791E10,3.966891E10,2.9508318E11,2.0371754E11,1.2673803E12,7.3293595E11,3.3797941E10,1.4738824E11,7.768082E11,0E0,0E0,0E0,0E0,0E0,0E0,0E0,0E0,0E0,0E0,0E0,0E0,0E0,0E0,0E0,0E0,0E0,0E0,0E0,0E0,0E0,0E0,0E0,0E0,0E0,0E0,0E0,0E0,0E0,0E0,0E0],"parents":[2147483647,0,0,1,1,2,2,3,3,4,4,5,5,6,6,7,7,8,8,9,9,10,10,11,11,12,12,13,13,14,14,15,15,16,16,17,17,18,18,19,19,20,20,21,21,22,22,23,23,24,24,25,25,26,26,27,27,28,28,29,29],"right_children":[2,4,6,8,10,12,14,16,18,20,22,24,26,28,30,32,34,36,38,40,42,44,46,48,50,52,54,56,58,60,-1,-1,-1,-1,-1,-1,-1,-1,-1,-1,-1,-1,-1,-1,-1,-1,-1,-1,-1,-1,-1,-1,-1,-1,-1,-1,-1,-1,-1,-1,-1],"split_conditions":[1.302E3,2E0,2.74706E3,1E0,1E0,3E0,9E0,2.6E1,7.31E2,9.49E2,4.3E1,9E0,1E0,3E0,1E0,7E2,1.152E3,9E0,3E0,3E0,8.2E1,1.2E1,4.5E1,2.1E1,1E0,1.2E1,2.5E1,2E0,7E0,1E0,1.8456975E5,-7.2627866E3,-2.2664905E3,2.0815332E3,1.7540209E4,-1.5347673E2,-1.1759173E4,1.9711442E3,-6.104681E3,-1.1393923E4,1.5240002E3,4.57637E4,7.422375E3,-1.6487461E3,-6.1094263E3,2.4980525E4,4.618708E3,5.992516E2,2.488329E4,7.599893E3,-1.5104515E3,5.69648E4,2.1000934E4,3.565477E2,4.182532E4,-9.6386045E3,7.390056E3,5.9096206E3,3.9125965E4,7.0987695E4,1.0502351E4],"split_indices":[2,5,2,25,25,1,11,3,2,2,3,6,25,1,23,2,2,6,0,11,4,11,3,3,25,3,3,5,3,25,0,0,0,0,0,0,0,0,0,0,0,0,0,0,0,0,0,0,0,0,0,0,0,0,0,0,0,0,0,0,0],"split_type":[0,0,0,0,0,0,0,0,0,0,0,0,0,0,0,0,0,0,0,0,0,0,0,0,0,0,0,0,0,0,0,0,0,0,0,0,0,0,0,0,0,0,0,0,0,0,0,0,0,0,0,0,0,0,0,0,0,0,0,0,0],"sum_hessian":[3.052E3,2.653E3,3.99E2,1.987E3,6.66E2,3.69E2,3E1,1.272E3,7.15E2,4.69E2,1.97E2,1.81E2,1.88E2,1.4E1,1.6E1,1.105E3,1.67E2,2.06E2,5.09E2,1.59E2,3.1E2,1.93E2,4E0,2.4E1,1.57E2,1.55E2,3.3E1,3E0,1.1E1,1.5E1,1E0,2.75E2,8.3E2,1.52E2,1.5E1,8E0,1.98E2,1.9E1,4.9E2,1.1E1,1.48E2,3E0,3.07E2,1.45E2,4.8E1,1E0,3E0,7E0,1.7E1,1.27E2,3E1,1E1,1.45E2,2.9E1,4E0,2E0,1E0,2E0,9E0,1.2E1,3E0],"tree_param":{"num_deleted":"0","num_feature":"27","num_nodes":"61","size_leaf_vector":"1"}},{"base_weights":[1.702066E3,-1.1164063E4,2.982175E5,-3.2242451E4,6.435956E4,2.2685773E5,5.1188456E5,-5.8843695E4,-9.452213E3,1.5964281E5,4.742656E4,1.3360767E5,3.6211147E5,2.3976416E5,7.2187994E5,-9.9335195E4,-4.8794676E4,-4.9547766E4,1.0704618E4,3.5316784E5,1.25076625E5,4.1706777E4,2.0327802E5,6.578596E4,3.9376053E5,2.5138294E5,5.4188506E5,-3.2367469E4,3.1049438E5,5.478209E5,1.7534127E5,-8.45719E3,-1.2208386E4,-2.0896492E3,-5.530226E3,-2.6387812E3,-9.262859E3,2.8897551E3,-3.4323918E3,5.1111855E4,1.2220022E4,2.4224396E4,9.348079E3,2.8997466E3,1.0639399E4,1.4689929E4,4.5499816E4,-3.6847556E3,2.940362E4,2.7123004E4,6.70942E4,2.7064701E4,1.3476063E3,6.774712E4,1.623358E4,-8.996031E3,7.020553E3,3.7445348E4,8.896275E3,6.3086996E4,-2.2348376E3],"categories":[],"categories_nodes":[],"categories_segments":[],"categories_sizes":[],"default_left":[0,0,0,0,0,0,0,0,0,0,0,0,0,0,0,0,0,0,0,0,0,0,0,0,0,0,0,0,0,0,0,0,0,0,0,0,0,0,0,0,0,0,0,0,0,0,0,0,0,0,0,0,0,0,0,0,0,0,0,0,0],"id":11,"left_children":[1,3,5,7,9,11,13,15,17,19,21,23,25,27,29,31,33,35,37,39,41,43,45,47,49,51,53,55,57,59,-1,-1,-1,-1,-1,-1,-1,-1,-1,-1,-1,-1,-1,-1,-1,-1,-1,-1,-1,-1,-1,-1,-1,-1,-1,-1,-1,-1,-1,-1,-1],"loss_changes":[1.1650541E13,4.661614E12,1.8202745E12,1.387147E12,1.0234112E12,1.1750238E12,1.5983842E12,4.2483896E11,9.978483E11,5.9801154E11,4.7646324E11,1.0150927E12,6.401158E11,2.9876873E11,2.0917539E12,5.9866874E10,1.5279863E11,4.0962654E11,6.7437514E11,4.4828223E11,2.8462088E11,4.2935524E11,2.0280266E11,1.1352885E12,2.2557858E11,1.1551231E11,6.1048514E11,2.9945596E10,1.3671517E11,7.7173096E11,0E0,0E0,0E0,0E0,0E0,0E0,0E0,0E0,0E0,0E0,0E0,0E0,0E0,0E0,0E0,0E0,0E0,0E0,0E0,0E0,0E0,0E0,0E0,0E0,0E0,0E0,0E0,0E0,0E0,0E0,0E0],"parents":[2147483647,0,0,1,1,2,2,3,3,4,4,5,5,6,6,7,7,8,8,9,9,10,10,11,11,12,12,13,13,14,14,15,15,16,16,17,17,18,18,19,19,20,20,21,21,22,22,23,23,24,24,25,25,26,26,27,27,28,28,29,29],"right_children":[2,4,6,8,10,12,14,16,18,20,22,24,26,28,30,32,34,36,38,40,42,44,46,48,50,52,54,56,58,60,-1,-1,-1,-1,-1,-1,-1,-1,-1,-1,-1,-1,-1,-1,-1,-1,-1,-1,-1,-1,-1,-1,-1,-1,-1,-1,-1,-1,-1,-1,-1],"split_conditions":[1.69E3,1.115E3,2.74706E3,1E0,9E0,1E0,9E0,7E2,7.7E2,2.6E2,1E0,1E0,1.2E1,3E0,1E0,1E0,4.4E2,1.4E1,1E0,1E0,5E0,2.7E1,4.67E2,1E0,2.1E1,2.8E1,3.6E1,2E0,1E0,4E0,1.7534127E5,-8.45719E3,-1.2208386E4,-2.0896492E3,-5.530226E3,-2.6387812E3,-9.262859E3,2.8897551E3,-3.4323918E3,5.1111855E4,1.2220022E4,2.4224396E4,9.348079E3,2.8997466E3,1.0639399E4,1.4689929E4,4.5499816E4,-3.6847556E3,2.940362E4,2.7123004E4,6.70942E4,2.7064701E4,1.3476063E3,6.774712E4,1.623358E4,-8.996031E3,7.020553E3,3.7445348E4,8.896275E3,6.3086996E4,-2.2348376E3],"split_indices":[2,2,2,8,6,20,11,2,2,4,23,23,11,1,23,25,4,11,25,10,6,3,4,15,3,6,3,5,20,5,0,0,0,0,0,0,0,0,0,0,0,0,0,0,0,0,0,0,0,0,0,0,0,0,0,0,0,0,0,0,0],"split_type":[0,0,0,0,0,0,0,0,0,0,0,0,0,0,0,0,0,0,0,0,0,0,0,0,0,0,0,0,0,0,0,0,0,0,0,0,0,0,0,0,0,0,0,0,0,0,0,0,0,0,0,0,0,0,0,0,0,0,0,0,0],"sum_hessian":[3.052E3,2.926E3,1.26E2,2.288E3,6.38E2,9.6E1,3E1,1.055E3,1.233E3,9.5E1,5.43E2,5.8E1,3.8E1,1.4E1,1.6E1,2.08E2,8.47E2,4.12E2,8.21E2,1.3E1,8.2E1,5.25E2,1.8E1,4.7E1,1.1E1,2.5E1,1.3E1,3E0,1.1E1,1.5E1,1E0,1.29E2,7.9E1,1.61E2,6.86E2,2.69E2,1.43E2,5.85E2,2.36E2,7E0,6E0,1.6E1,6.6E1,4.4E2,8.5E1,1.6E1,2E0,3.3E1,1.4E1,9E0,2E0,2.3E1,2E0,9E0,4E0,2E0,1E0,8E0,3E0,1.3E1,2E0],"tree_param":{"num_deleted":"0","num_feature":"27","num_nodes":"61","size_leaf_vector":"1"}},{"base_weights":[1.7424043E3,-1.0003275E4,2.7243425E5,-3.436289E4,4.3855258E4,2.065671E5,4.697464E5,1.7410777E4,-4.399694E4,1.3019933E5,2.95922E4,1.2227971E5,3.287822E5,3.6784903E5,1.0655915E6,-3.8872176E4,3.4109734E4,-5.4866914E4,-1.2455433E4,9.43113E4,2.622833E5,4.514198E4,-1.3969956E4,5.9743168E4,3.622359E5,2.2733742E5,4.936952E5,1.8079233E5,4.9684206E5,3.10294E5,1.665742E5,-5.4566367E3,2.5449788E3,-8.1734937E3,4.477031E3,-7.3783213E3,-3.630824E3,3.7936184E4,-1.6037953E3,1.1756596E4,-3.948375E3,4.8391465E4,1.0344635E4,3.911906E3,1.6205226E4,1.4746448E4,-2.120081E3,-3.327118E3,2.6659281E4,2.4681936E4,6.262125E4,2.4471E4,1.2577645E3,6.1649883E4,1.49348955E4,-8.396296E3,2.3656264E4,5.961651E4,4.983147E3,6.669525E3,3.9874574E4],"categories":[],"categories_nodes":[],"categories_segments":[],"categories_sizes":[],"default_left":[0,0,0,0,0,0,0,0,0,0,0,0,0,0,0,0,0,0,0,0,0,0,0,0,0,0,0,0,0,0,0,0,0,0,0,0,0,0,0,0,0,0,0,0,0,0,0,0,0,0,0,0,0,0,0,0,0,0,0,0,0],"id":12,"left_children":[1,3,5,7,9,11,13,15,17,19,21,23,25,27,29,31,33,35,37,39,41,43,45,47,49,51,53,55,57,59,-1,-1,-1,-1,-1,-1,-1,-1,-1,-1,-1,-1,-1,-1,-1,-1,-1,-1,-1,-1,-1,-1,-1,-1,-1,-1,-1,-1,-1,-1,-1],"loss_changes":[9.709616E12,3.8416522E12,1.5535062E12,1.00632704E12,1.119303E12,9.590119E11,1.4901901E12,2.9926366E11,5.821707E11,5.867539E11,5.3169816E11,8.637148E11,5.402177E11,5.8578724E11,1.2962989E12,7.508082E10,3.0622702E11,4.4106252E11,6.1949805E11,3.251119E11,9.004286E11,4.0065434E11,2.447593E11,9.3238906E11,2.1104584E11,9.392646E10,4.99944E11,2.118138E11,6.806679E11,3.8045745E10,0E0,0E0,0E0,0E0,0E0,0E0,0E0,0E0,0E0,0E0,0E0,0E0,0E0,0E0,0E0,0E0,0E0,0E0,0E0,0E0,0E0,0E0,0E0,0E0,0E0,0E0,0E0,0E0,0E0,0E0,0E0],"parents":[2147483647,0,0,1,1,2,2,3,3,4,4,5,5,6,6,7,7,8,8,9,9,10,10,11,11,12,12,13,13,14,14,15,15,16,16,17,17,18,18,19,19,20,20,21,21,22,22,23,23,24,24,25,25,26,26,27,27,28,28,29,29],"right_children":[2,4,6,8,10,12,14,16,18,20,22,24,26,28,30,32,34,36,38,40,42,44,46,48,50,52,54,56,58,60,-1,-1,-1,-1,-1,-1,-1,-1,-1,-1,-1,-1,-1,-1,-1,-1,-1,-1,-1,-1,-1,-1,-1,-1,-1,-1,-1,-1,-1,-1,-1],"split_conditions":[1.69E3,1.035E3,2.74706E3,1.1E1,9E0,1E0,1E0,1E0,1E0,1.398E3,1E0,1E0,1.2E1,9E0,7E0,1.196E3,5.41E2,8.06E2,1.2E1,4E0,3.2E1,1E0,1E1,1E0,2.1E1,2.8E1,3.6E1,3E0,1E0,4E0,1.665742E5,-5.4566367E3,2.5449788E3,-8.1734937E3,4.477031E3,-7.3783213E3,-3.630824E3,3.7936184E4,-1.6037953E3,1.1756596E4,-3.948375E3,4.8391465E4,1.0344635E4,3.911906E3,1.6205226E4,1.4746448E4,-2.120081E3,-3.327118E3,2.6659281E4,2.4681936E4,6.262125E4,2.4471E4,1.2577645E3,6.1649883E4,1.49348955E4,-8.396296E3,2.3656264E4,5.961651E4,4.983147E3,6.669525E3,3.9874574E4],"split_indices":[2,2,2,6,6,20,23,8,20,2,25,23,11,11,1,4,2,2,6,0,3,23,6,15,3,6,3,1,25,0,0,0,0,0,0,0,0,0,0,0,0,0,0,0,0,0,0,0,0,0,0,0,0,0,0,0,0,0,0,0,0],"split_type":[0,0,0,0,0,0,0,0,0,0,0,0,0,0,0,0,0,0,0,0,0,0,0,0,0,0,0,0,0,0,0,0,0,0,0,0,0,0,0,0,0,0,0,0,0,0,0,0,0,0,0,0,0,0,0,0,0,0,0,0,0],"sum_hessian":[3.052E3,2.926E3,1.26E2,2.015E3,9.11E2,9.6E1,3E1,3.16E2,1.699E3,1.28E2,7.83E2,5.8E1,3.8E1,2.7E1,3E0,7.2E1,2.44E2,1.263E3,4.36E2,1.02E2,2.6E1,5.77E2,2.06E2,4.7E1,1.1E1,2.5E1,1.3E1,1.2E1,1.5E1,2E0,1E0,5.8E1,1.4E1,2E1,2.24E2,6.24E2,6.39E2,3E0,4.33E2,8.7E1,1.5E1,1E1,1.6E1,5.5E2,2.7E1,8E0,1.98E2,3.3E1,1.4E1,9E0,2E0,2.3E1,2E0,9E0,4E0,2E0,1E1,1.2E1,3E0,1E0,1E0],"tree_param":{"num_deleted":"0","num_feature":"27","num_nodes":"61","size_leaf_vector":"1"}},{"base_weights":[1.7725276E3,-1.8323924E4,1.3510805E5,-3.2925695E4,2.5224266E4,1.0984951E5,4.322227E5,-3.9924004E4,1.8700215E4,3.7022527E3,6.556208E4,5.7640977E4,1.5954317E5,3.3391628E5,1.0123119E6,-3.2779305E4,-9.676693E4,5.1623564E3,1.8387612E5,1.5007179E3,4.8068496E4,3.1077216E5,5.1950844E4,1.80276E4,9.067009E4,5.260847E5,1.508028E5,3.837164E5,-6.081361E3,2.9477928E5,1.5824548E5,-5.016528E3,-3.56713E2,-9.216503E3,-1.816324E4,-4.8812192E2,1.1870275E4,8.612066E3,3.6503363E4,-7.663772E3,9.826387E2,3.417209E4,-1.4831844E3,1.6425592E4,3.547408E3,1.7884091E2,1.7207637E4,1.1293403E4,7.612973E2,1.4579544E4,6.0424934E4,1.663797E4,-2.5100442E3,2.7732957E4,7.537978E4,6.3360503E3,3.7880844E4],"categories":[],"categories_nodes":[],"categories_segments":[],"categories_sizes":[],"default_left":[0,0,0,0,0,0,0,0,0,0,0,0,0,0,0,0,0,0,0,0,0,0,0,0,0,0,0,0,0,0,0,0,0,0,0,0,0,0,0,0,0,0,0,0,0,0,0,0,0,0,0,0,0,0,0,0,0],"id":13,"left_children":[1,3,5,7,9,11,13,15,17,19,21,23,25,27,29,31,33,35,37,39,-1,41,43,45,47,49,51,53,-1,55,-1,-1,-1,-1,-1,-1,-1,-1,-1,-1,-1,-1,-1,-1,-1,-1,-1,-1,-1,-1,-1,-1,-1,-1,-1,-1,-1],"loss_changes":[8.183206E12,1.6884577E12,2.9543928E12,7.189994E11,5.7881395E11,9.507444E11,1.4297942E12,7.079537E11,5.3124927E11,4.5711963E11,7.58181E11,2.3649328E11,5.26166E11,5.73748E11,1.1699094E12,7.905933E11,5.9415724E10,2.5259708E11,2.8732752E11,2.8374437E11,0E0,1.259927E11,4.0311705E11,2.0982895E11,1.8220895E11,3.0803755E10,5.1382138E11,7.752445E11,0E0,3.4336293E10,0E0,0E0,0E0,0E0,0E0,0E0,0E0,0E0,0E0,0E0,0E0,0E0,0E0,0E0,0E0,0E0,0E0,0E0,0E0,0E0,0E0,0E0,0E0,0E0,0E0,0E0,0E0],"parents":[2147483647,0,0,1,1,2,2,3,3,4,4,5,5,6,6,7,7,8,8,9,9,10,10,11,11,12,12,13,13,14,14,15,15,16,16,17,17,18,18,19,19,21,21,22,22,23,23,24,24,25,25,26,26,27,27,29,29],"right_children":[2,4,6,8,10,12,14,16,18,20,22,24,26,28,30,32,34,36,38,40,-1,42,44,46,48,50,52,54,-1,56,-1,-1,-1,-1,-1,-1,-1,-1,-1,-1,-1,-1,-1,-1,-1,-1,-1,-1,-1,-1,-1,-1,-1,-1,-1,-1,-1],"split_conditions":[1.302E3,2E0,2.74706E3,5E0,1E0,3E0,1E0,3E0,1E0,1E0,5E0,2E0,8.2E1,4E0,7E0,1E0,8.52E2,1E0,9.47E2,8.06E2,4.8068496E4,2.1E1,3E2,4E0,1.3E1,2E0,2E1,1E0,-6.081361E3,4E0,1.5824548E5,-5.016528E3,-3.56713E2,-9.216503E3,-1.816324E4,-4.8812192E2,1.1870275E4,8.612066E3,3.6503363E4,-7.663772E3,9.826387E2,3.417209E4,-1.4831844E3,1.6425592E4,3.547408E3,1.7884091E2,1.7207637E4,1.1293403E4,7.612973E2,1.4579544E4,6.0424934E4,1.663797E4,-2.5100442E3,2.7732957E4,7.537978E4,6.3360503E3,3.7880844E4],"split_indices":[2,5,2,8,20,1,23,8,20,13,6,5,4,5,1,8,2,23,2,2,0,3,4,8,11,5,6,15,0,0,0,0,0,0,0,0,0,0,0,0,0,0,0,0,0,0,0,0,0,0,0,0,0,0,0,0,0],"split_type":[0,0,0,0,0,0,0,0,0,0,0,0,0,0,0,0,0,0,0,0,0,0,0,0,0,0,0,0,0,0,0,0,0,0,0,0,0,0,0,0,0,0,0,0,0,0,0,0,0,0,0,0,0,0,0,0,0],"sum_hessian":[3.052E3,2.653E3,3.99E2,1.987E3,6.66E2,3.69E2,3E1,1.75E3,2.37E2,4.35E2,2.31E2,1.81E2,1.88E2,2.7E1,3E0,1.556E3,1.94E2,2.2E2,1.7E1,4.34E2,1E0,1.1E1,2.2E2,8.3E1,9.8E1,3E0,1.85E2,2.4E1,3E0,2E0,1E0,9.75E2,5.81E2,1.86E2,8E0,2.03E2,1.7E1,1.2E1,5E0,4.1E1,3.93E2,1E1,1E0,2.7E1,1.93E2,7.6E1,7E0,7.7E1,2.1E1,1E0,2E0,1.7E2,1.5E1,2E1,4E0,1E0,1E0],"tree_param":{"num_deleted":"0","num_feature":"27","num_nodes":"57","size_leaf_vector":"1"}},{"base_weights":[1.7707966E3,-8.1015273E3,2.292867E5,-2.7296102E4,3.978005E4,1.8985961E5,5.1101847E5,-1.2874056E4,-5.364429E4,9.51677E4,1.4839515E4,3.166948E3,2.5427533E5,2.8835028E5,1.3055744E5,-2.1669566E4,4.342989E4,-8.432379E4,-4.3023473E4,8.114634E4,4.3758712E5,-4.019135E4,2.8862898E4,-3.5566953E4,2.0394984E5,1.6353334E5,4.5040997E5,2.0170523E5,5.09932E4,-1.3320881E3,-8.835659E3,2.6025454E3,1.9228793E4,4.6663228E3,-8.668736E3,3.4585E3,-4.6163784E3,4.5313784E3,1.458605E4,2.2657037E4,6.032898E4,-4.358144E3,1.0428922E4,2.6944377E3,4.566507E4,1.35413125E4,-4.782268E3,4.4067905E3,2.3290334E4,8.790027E3,2.8673896E4,8.278841E4,2.9577357E4,2.8404865E4,8.574426E3],"categories":[],"categories_nodes":[],"categories_segments":[],"categories_sizes":[],"default_left":[0,0,0,0,0,0,0,0,0,0,0,0,0,0,0,0,0,0,0,0,0,0,0,0,0,0,0,0,0,0,0,0,0,0,0,0,0,0,0,0,0,0,0,0,0,0,0,0,0,0,0,0,0,0,0],"id":14,"left_children":[1,3,5,7,9,11,13,15,17,19,21,23,25,27,-1,29,31,33,35,37,39,41,43,45,47,49,51,53,-1,-1,-1,-1,-1,-1,-1,-1,-1,-1,-1,-1,-1,-1,-1,-1,-1,-1,-1,-1,-1,-1,-1,-1,-1,-1,-1],"loss_changes":[6.859233E12,2.6911934E12,1.3136775E12,7.934985E11,1.1561991E12,1.3581261E12,2.277372E12,6.7048125E11,2.3716875E11,1.2128E12,4.4798532E11,2.40567E11,1.4213453E12,1.4673052E11,0E0,6.502192E11,4.6911026E11,6.2559093E10,1.3588326E11,5.75428E11,2.12973E11,6.2341693E10,3.6686853E11,6.095844E10,1.2882149E10,5.2458213E11,1.2727857E12,8.067934E10,0E0,0E0,0E0,0E0,0E0,0E0,0E0,0E0,0E0,0E0,0E0,0E0,0E0,0E0,0E0,0E0,0E0,0E0,0E0,0E0,0E0,0E0,0E0,0E0,0E0,0E0,0E0],"parents":[2147483647,0,0,1,1,2,2,3,3,4,4,5,5,6,6,7,7,8,8,9,9,10,10,11,11,12,12,13,13,15,15,16,16,17,17,18,18,19,19,20,20,21,21,22,22,23,23,24,24,25,25,26,26,27,27],"right_children":[2,4,6,8,10,12,14,16,18,20,22,24,26,28,-1,30,32,34,36,38,40,42,44,46,48,50,52,54,-1,-1,-1,-1,-1,-1,-1,-1,-1,-1,-1,-1,-1,-1,-1,-1,-1,-1,-1,-1,-1,-1,-1,-1,-1,-1,-1],"split_conditions":[1.69E3,2E0,1E0,1E0,4.52E2,1E0,1E1,5E0,7.08E2,4.5E2,1E0,5E0,1.3E1,5E0,1.3055744E5,2E0,1.173E3,6E0,3E0,1.302E3,3E0,1E0,1E0,1E0,2.509E3,1.3E1,1.95E2,4E0,5.09932E4,-1.3320881E3,-8.835659E3,2.6025454E3,1.9228793E4,4.6663228E3,-8.668736E3,3.4585E3,-4.6163784E3,4.5313784E3,1.458605E4,2.2657037E4,6.032898E4,-4.358144E3,1.0428922E4,2.6944377E3,4.566507E4,1.35413125E4,-4.782268E3,4.4067905E3,2.3290334E4,8.790027E3,2.8673896E4,8.278841E4,2.9577357E4,2.8404865E4,8.574426E3],"split_indices":[2,5,23,25,4,7,11,8,2,4,8,1,11,1,0,8,2,6,0,2,0,24,13,9,2,6,4,0,0,0,0,0,0,0,0,0,0,0,0,0,0,0,0,0,0,0,0,0,0,0,0,0,0,0,0],"split_type":[0,0,0,0,0,0,0,0,0,0,0,0,0,0,0,0,0,0,0,0,0,0,0,0,0,0,0,0,0,0,0,0,0,0,0,0,0,0,0,0,0,0,0,0,0,0,0,0,0,0,0,0,0,0,0],"sum_hessian":[3.052E3,2.926E3,1.26E2,2.089E3,8.37E2,1.12E2,1.4E1,1.351E3,7.38E2,2.59E2,5.78E2,2.9E1,8.3E1,1.2E1,2E0,1.169E3,1.82E2,1.88E2,5.5E2,2.5E2,9E0,1.17E2,4.61E2,2.5E1,4E0,5.8E1,2.5E1,1E1,2E0,1.04E3,1.29E2,1.64E2,1.8E1,3E0,1.85E2,2.1E1,5.29E2,1.62E2,8.8E1,5E0,4E0,1.15E2,2E0,4.6E2,1E0,1E0,2.4E1,1E0,3E0,3.7E1,2.1E1,6E0,1.9E1,5E0,5E0],"tree_param":{"num_deleted":"0","num_feature":"27","num_nodes":"55","size_leaf_vector":"1"}},{"base_weights":[1.7797175E3,-7.2356714E3,2.0954558E5,-2.200343E4,4.567612E4,1.725222E5,4.7448525E5,-2.880568E4,3.309573E4,2.9045168E4,1.0213574E5,4.0654458E3,2.3063148E5,3.0294088E5,1.4380534E5,-5.79734E4,-2.02424E4,2.2135703E5,1.93943E4,5.082647E3,9.038024E4,2.3187536E5,5.8747E4,-3.1673379E4,1.8909425E5,1.4781502E5,4.0969075E5,1.4147752E5,4.063537E5,-1.1194181E3,-6.9892026E3,4.4830195E3,-2.7265532E3,4.479076E4,1.6128977E4,-9.302091E3,2.4780022E3,-2.864525E2,1.4660942E4,5.5502664E4,7.2501636E3,1.8154957E4,5.0758535E4,6.3274575E3,-2.173792E4,1.286425E4,-4.3231714E3,3.9130376E3,2.1680264E4,7.9341587E3,2.5936846E4,7.569226E4,2.6767506E4,-1.5701481E4,2.1739537E4,2.0870373E4,5.5182777E4],"categories":[],"categories_nodes":[],"categories_segments":[],"categories_sizes":[],"default_left":[0,0,0,0,0,0,0,0,0,0,0,0,0,0,0,0,0,0,0,0,0,0,0,0,0,0,0,0,0,0,0,0,0,0,0,0,0,0,0,0,0,0,0,0,0,0,0,0,0,0,0,0,0,0,0,0,0],"id":15,"left_children":[1,3,5,7,9,11,13,15,17,19,21,23,25,27,-1,29,31,33,35,37,39,41,43,45,47,49,51,53,55,-1,-1,-1,-1,-1,-1,-1,-1,-1,-1,-1,-1,-1,-1,-1,-1,-1,-1,-1,-1,-1,-1,-1,-1,-1,-1,-1,-1],"loss_changes":[5.72006E12,2.2881294E12,1.1638785E12,8.588666E11,5.970399E11,1.1052085E12,2.0437753E12,5.078606E11,6.457282E11,7.2706346E11,8.026177E11,2.0437062E11,1.1850822E12,1.7627349E11,0E0,2.5680268E11,7.219324E11,1.5909762E11,1.451882E11,4.0195133E11,1.1144648E12,4.073596E11,1.5127449E11,5.3739037E10,1.2292702E10,4.3008957E11,1.07951214E12,1.9276056E11,1.1485512E11,0E0,0E0,0E0,0E0,0E0,0E0,0E0,0E0,0E0,0E0,0E0,0E0,0E0,0E0,0E0,0E0,0E0,0E0,0E0,0E0,0E0,0E0,0E0,0E0,0E0,0E0,0E0,0E0],"parents":[2147483647,0,0,1,1,2,2,3,3,4,4,5,5,6,6,7,7,8,8,9,9,10,10,11,11,12,12,13,13,15,15,16,16,17,17,18,18,19,19,20,20,21,21,22,22,23,23,24,24,25,25,26,26,27,27,28,28],"right_children":[2,4,6,8,10,12,14,16,18,20,22,24,26,28,-1,30,32,34,36,38,40,42,44,46,48,50,52,54,56,-1,-1,-1,-1,-1,-1,-1,-1,-1,-1,-1,-1,-1,-1,-1,-1,-1,-1,-1,-1,-1,-1,-1,-1,-1,-1,-1,-1],"split_conditions":[1.69E3,1.115E3,1E0,3E1,2.6E1,1E0,7E0,7E2,3.03E2,1E0,3.19E2,5E0,1.3E1,1.8E2,1.4380534E5,2E0,3E0,8.2E1,5.41E2,1E0,5E0,2E0,4E0,1E0,5E0,1.3E1,1.95E2,1.3E1,4E0,-1.1194181E3,-6.9892026E3,4.4830195E3,-2.7265532E3,4.479076E4,1.6128977E4,-9.302091E3,2.4780022E3,-2.864525E2,1.4660942E4,5.5502664E4,7.2501636E3,1.8154957E4,5.0758535E4,6.3274575E3,-2.173792E4,1.286425E4,-4.3231714E3,3.9130376E3,2.1680264E4,7.9341587E3,2.5936846E4,7.569226E4,2.6767506E4,-1.5701481E4,2.1739537E4,2.0870373E4,5.5182777E4],"split_indices":[2,2,23,3,3,7,1,2,4,20,4,1,11,4,0,0,0,4,2,23,6,8,1,9,0,6,4,3,1,0,0,0,0,0,0,0,0,0,0,0,0,0,0,0,0,0,0,0,0,0,0,0,0,0,0,0,0],"split_type":[0,0,0,0,0,0,0,0,0,0,0,0,0,0,0,0,0,0,0,0,0,0,0,0,0,0,0,0,0,0,0,0,0,0,0,0,0,0,0,0,0,0,0,0,0,0,0,0,0,0,0,0,0,0,0,0,0],"sum_hessian":[3.052E3,2.926E3,1.26E2,2.288E3,6.38E2,1.12E2,1.4E1,2.037E3,2.51E2,4.94E2,1.44E2,2.9E1,8.3E1,1.3E1,1E0,4.61E2,1.576E3,1.6E1,2.35E2,3.56E2,1.38E2,3.5E1,1.09E2,2.5E1,4E0,5.8E1,2.5E1,6E0,7E0,9.4E1,3.67E2,1.53E2,1.423E3,2E0,1.4E1,1E1,2.25E2,3.38E2,1.8E1,4E0,1.34E2,3.1E1,4E0,1.08E2,1E0,1E0,2.4E1,1E0,3E0,3.7E1,2.1E1,6E0,1.9E1,1E0,5E0,4E0,3E0],"tree_param":{"num_deleted":"0","num_feature":"27","num_nodes":"57","size_leaf_vector":"1"}},{"base_weights":[1.7899995E3,-6.451162E3,1.9171197E5,-2.5216307E4,2.8237771E4,1.5677852E5,4.4209653E5,-3.1901271E4,1.9860258E4,1.0848391E4,7.059901E4,4.796723E3,2.0919131E5,2.7851044E5,1.3661508E5,-3.9192914E4,-6.9938203E3,2.1652248E5,7.059423E3,-2.009274E2,8.046111E4,4.1996156E5,6.322903E4,-2.8177531E4,1.753035E5,1.3360758E5,3.7266244E5,1.2819235E5,3.75225E5,-4.5749233E3,-5.7594586E2,1.0395321E4,-1.621931E3,1.0386988E4,3.6818977E4,-2.8053757E3,1.7359084E3,-1.571331E2,4.3157668E4,3.5168503E3,2.0801818E4,-1.6676469E3,5.106245E4,5.23191E3,2.6266576E4,1.2221038E4,-3.9081462E3,3.1024375E3,2.0361719E4,7.161621E3,2.3461053E4,4.3060824E4,-2.1512488E4,-1.4916406E4,1.992791E4,3.5554844E3,4.1867004E4],"categories":[],"categories_nodes":[],"categories_segments":[],"categories_sizes":[],"default_left":[0,0,0,0,0,0,0,0,0,0,0,0,0,0,0,0,0,0,0,0,0,0,0,0,0,0,0,0,0,0,0,0,0,0,0,0,0,0,0,0,0,0,0,0,0,0,0,0,0,0,0,0,0,0,0,0,0],"id":16,"left_children":[1,3,5,7,9,11,13,15,17,19,21,23,25,27,-1,29,31,33,35,37,39,41,43,45,47,49,51,53,55,-1,-1,-1,-1,-1,-1,-1,-1,-1,-1,-1,-1,-1,-1,-1,-1,-1,-1,-1,-1,-1,-1,-1,-1,-1,-1,-1,-1],"loss_changes":[4.7797245E12,1.9060218E12,1.04153167E12,5.7317065E11,7.564956E11,8.9913085E11,1.8869492E12,3.0030063E11,6.177619E11,5.615125E11,7.433101E11,1.7360963E11,9.8809335E11,1.5543029E11,0E0,2.803132E11,3.8653736E11,2.1804194E11,8.4390674E10,3.740469E11,5.704235E11,2.4603676E11,6.2595465E11,4.7411466E10,1.4108262E10,3.526154E11,9.7818955E11,1.6773985E11,1.0317005E11,0E0,0E0,0E0,0E0,0E0,0E0,0E0,0E0,0E0,0E0,0E0,0E0,0E0,0E0,0E0,0E0,0E0,0E0,0E0,0E0,0E0,0E0,0E0,0E0,0E0,0E0,0E0,0E0],"parents":[2147483647,0,0,1,1,2,2,3,3,4,4,5,5,6,6,7,7,8,8,9,9,10,10,11,11,12,12,13,13,15,15,16,16,17,17,18,18,19,19,20,20,21,21,22,22,23,23,24,24,25,25,26,26,27,27,28,28],"right_children":[2,4,6,8,10,12,14,16,18,20,22,24,26,28,-1,30,32,34,36,38,40,42,44,46,48,50,52,54,56,-1,-1,-1,-1,-1,-1,-1,-1,-1,-1,-1,-1,-1,-1,-1,-1,-1,-1,-1,-1,-1,-1,-1,-1,-1,-1,-1,-1],"split_conditions":[1.69E3,1.003E3,1E0,2.6E1,1E0,1E0,7E0,1E0,3.03E2,2.6E1,5E0,5E0,1.3E1,1.8E2,1.3661508E5,1E0,1E1,9.15E2,7E2,1E0,1.302E3,1.053E3,8.38E2,1E0,2.509E3,1.3E1,1E0,1.3E1,3E0,-4.5749233E3,-5.7594586E2,1.0395321E4,-1.621931E3,1.0386988E4,3.6818977E4,-2.8053757E3,1.7359084E3,-1.571331E2,4.3157668E4,3.5168503E3,2.0801818E4,-1.6676469E3,5.106245E4,5.23191E3,2.6266576E4,1.2221038E4,-3.9081462E3,3.1024375E3,2.0361719E4,7.161621E3,2.3461053E4,4.3060824E4,-2.1512488E4,-1.4916406E4,1.992791E4,3.5554844E3,4.1867004E4],"split_indices":[2,2,23,3,20,7,1,20,4,3,6,1,11,4,0,15,6,2,2,13,2,2,4,9,2,6,18,3,1,0,0,0,0,0,0,0,0,0,0,0,0,0,0,0,0,0,0,0,0,0,0,0,0,0,0,0,0],"split_type":[0,0,0,0,0,0,0,0,0,0,0,0,0,0,0,0,0,0,0,0,0,0,0,0,0,0,0,0,0,0,0,0,0,0,0,0,0,0,0,0,0,0,0,0,0,0,0,0,0,0,0,0,0,0,0,0,0],"sum_hessian":[3.052E3,2.926E3,1.26E2,1.899E3,1.027E3,1.12E2,1.4E1,1.654E3,2.45E2,7.29E2,2.98E2,2.9E1,8.3E1,1.3E1,1E0,1.279E3,3.75E2,1.4E1,2.31E2,6.3E2,9.9E1,5E0,2.93E2,2.5E1,4E0,5.8E1,2.5E1,6E0,7E0,1.069E3,2.1E2,2.8E1,3.47E2,9E0,5E0,5.2E1,1.79E2,6.29E2,1E0,7.4E1,2.5E1,1E0,4E0,2.79E2,1.4E1,1E0,2.4E1,1E0,3E0,3.7E1,2.1E1,2.3E1,2E0,1E0,5E0,1E0,6E0],"tree_param":{"num_deleted":"0","num_feature":"27","num_nodes":"57","size_leaf_vector":"1"}},{"base_weights":[1.7646086E3,-1.2255823E4,9.4785766E4,-3.4257402E4,3.6572292E3,7.52393E4,3.2502466E5,-6.719702E4,-2.7411379E4,-8.881891E3,3.896877E4,-6.842447E4,8.540217E4,2.4431539E5,8.0873344E5,-5.682693E4,-8.889129E4,1.3354469E3,-3.2503281E4,-1.4636154E4,8.331889E4,2.2303648E5,3.3249223E4,-1.0266213E5,1.716334E4,2.8707384E5,7.854566E4,2.809615E5,-1.5472258E4,2.1308239E5,1.2978433E5,-4.7157573E3,-7.3310713E3,-9.174968E3,-2.593653E3,-5.218735E2,1.1013179E4,-3.5967239E3,3.392381E2,-3.2179402E3,2.2583796E3,3.0665654E4,6.8058433E3,2.4619303E4,-1.5842656E3,1.7968459E4,2.7766736E3,-1.6482913E3,-1.3454007E4,5.495595E3,-3.436826E3,3.5858043E4,-2.3137085E3,8.998106E3,-1.9248877E3,3.321864E4,-8.38221E3,3.3777095E3,2.858465E4],"categories":[],"categories_nodes":[],"categories_segments":[],"categories_sizes":[],"default_left":[0,0,0,0,0,0,0,0,0,0,0,0,0,0,0,0,0,0,0,0,0,0,0,0,0,0,0,0,0,0,0,0,0,0,0,0,0,0,0,0,0,0,0,0,0,0,0,0,0,0,0,0,0,0,0,0,0,0,0],"id":17,"left_children":[1,3,5,7,9,11,13,15,17,19,21,23,25,27,29,31,33,35,37,39,41,43,45,47,49,51,53,55,-1,57,-1,-1,-1,-1,-1,-1,-1,-1,-1,-1,-1,-1,-1,-1,-1,-1,-1,-1,-1,-1,-1,-1,-1,-1,-1,-1,-1,-1,-1],"loss_changes":[3.982874E12,9.2932316E11,1.775688E12,2.493713E11,6.8266335E11,5.4605722E11,1.0126473E12,3.7918147E10,1.3529488E11,6.049826E11,4.1790885E11,7.50202E10,4.5588834E11,4.5292034E11,8.888076E11,1.7581998E10,8.417247E9,1.0040469E11,9.772971E10,7.006985E11,2.0748121E11,7.027976E10,3.1052287E11,4.723227E10,1.746885E10,2.5229977E11,3.7748775E11,5.1368047E11,0E0,2.94859E10,0E0,0E0,0E0,0E0,0E0,0E0,0E0,0E0,0E0,0E0,0E0,0E0,0E0,0E0,0E0,0E0,0E0,0E0,0E0,0E0,0E0,0E0,0E0,0E0,0E0,0E0,0E0,0E0,0E0],"parents":[2147483647,0,0,1,1,2,2,3,3,4,4,5,5,6,6,7,7,8,8,9,9,10,10,11,11,12,12,13,13,14,14,15,15,16,16,17,17,18,18,19,19,20,20,21,21,22,22,23,23,24,24,25,25,26,26,27,27,29,29],"right_children":[2,4,6,8,10,12,14,16,18,20,22,24,26,28,30,32,34,36,38,40,42,44,46,48,50,52,54,56,-1,58,-1,-1,-1,-1,-1,-1,-1,-1,-1,-1,-1,-1,-1,-1,-1,-1,-1,-1,-1,-1,-1,-1,-1,-1,-1,-1,-1,-1,-1],"split_conditions":[1.302E3,1E0,2.74706E3,6.8E2,1E0,1E0,1E0,1.1E1,3.28E2,1E0,5E0,1E0,8E0,2.2E1,7E0,1E0,1E0,1E0,2.3E1,1E0,1E1,2.1E1,2E0,2E2,1.646E3,2.233E3,2E1,4E0,-1.5472258E4,4E0,1.2978433E5,-4.7157573E3,-7.3310713E3,-9.174968E3,-2.593653E3,-5.218735E2,1.1013179E4,-3.5967239E3,3.392381E2,-3.2179402E3,2.2583796E3,3.0665654E4,6.8058433E3,2.4619303E4,-1.5842656E3,1.7968459E4,2.7766736E3,-1.6482913E3,-1.3454007E4,5.495595E3,-3.436826E3,3.5858043E4,-2.3137085E3,8.998106E3,-1.9248877E3,3.321864E4,-8.38221E3,3.3777095E3,2.858465E4],"split_indices":[2,8,2,2,20,8,23,11,4,23,6,24,3,6,1,25,23,24,3,15,3,3,0,4,2,2,6,5,0,0,0,0,0,0,0,0,0,0,0,0,0,0,0,0,0,0,0,0,0,0,0,0,0,0,0,0,0,0,0],"split_type":[0,0,0,0,0,0,0,0,0,0,0,0,0,0,0,0,0,0,0,0,0,0,0,0,0,0,0,0,0,0,0,0,0,0,0,0,0,0,0,0,0,0,0,0,0,0,0,0,0,0,0,0,0,0,0,0,0,0,0],"sum_hessian":[3.052E3,2.653E3,3.99E2,1.113E3,1.54E3,3.69E2,3E1,1.9E2,9.23E2,1.137E3,4.03E2,2.4E1,3.45E2,2.7E1,3E0,1.31E2,5.9E1,1.39E2,7.84E2,1.071E3,6.6E1,1.1E1,3.92E2,1.7E1,7E0,1E1,3.35E2,2.5E1,2E0,2E0,1E0,8.5E1,4.6E1,5.6E1,3E0,1.32E2,7E0,7.15E2,6.9E1,7.28E2,3.43E2,3E0,6.3E1,1E1,1E0,1.3E1,3.79E2,5E0,1.2E1,4E0,3E0,8E0,2E0,3E2,3.5E1,2.2E1,3E0,1E0,1E0],"tree_param":{"num_deleted":"0","num_feature":"27","num_nodes":"59","size_leaf_vector":"1"}},{"base_weights":[1.6740898E3,-5.287031E3,1.6209555E5,-1.9291807E4,2.964766E4,1.3001336E5,3.9297506E5,-2.4993596E4,2.2394223E4,7.1329586E4,1.0879181E4,4.1692206E5,1.0418296E5,2.4490884E5,1.2329512E5,-1.9677615E4,-7.022897E4,1.1721518E4,1.4561152E5,6.0681387E4,3.3146653E5,9.473758E3,4.116068E4,2.093573E5,7.6226586E4,2.7591693E4,2.139752E5,1.08376375E5,3.3376116E5,-3.2585828E3,-2.2653856E1,-6.5229707E3,-1.5519245E4,6.510244E2,2.0779633E4,5.21111E3,3.1181072E4,4.0775317E3,1.277165E4,1.747748E4,4.5320332E4,5.211608E2,1.3459641E4,2.6888375E4,-7.390069E3,-3.2882832E3,1.8060484E4,2.8256895E4,3.3945945E3,-1.4620494E4,1.7517408E4,1.6010171E4,4.673952E4],"categories":[],"categories_nodes":[],"categories_segments":[],"categories_sizes":[],"default_left":[0,0,0,0,0,0,0,0,0,0,0,0,0,0,0,0,0,0,0,0,0,0,0,0,0,0,0,0,0,0,0,0,0,0,0,0,0,0,0,0,0,0,0,0,0,0,0,0,0,0,0,0,0],"id":18,"left_children":[1,3,5,7,9,11,13,15,17,19,21,23,25,27,-1,29,31,33,35,37,39,41,-1,43,-1,45,47,49,51,-1,-1,-1,-1,-1,-1,-1,-1,-1,-1,-1,-1,-1,-1,-1,-1,-1,-1,-1,-1,-1,-1,-1,-1],"loss_changes":[3.4101823E12,1.4326141E12,8.896124E11,4.9732118E11,6.547968E11,7.940031E11,1.5636205E12,4.408431E11,3.296888E11,7.00084E11,3.221885E11,4.8554482E11,8.770545E11,1.33665325E11,0E0,4.1351905E11,7.185446E10,2.3672645E11,2.9454506E11,3.2972807E11,1.1154293E11,3.0754105E11,0E0,1.3790006E11,0E0,5.889029E11,5.2140953E11,1.4464945E11,1.10823735E11,0E0,0E0,0E0,0E0,0E0,0E0,0E0,0E0,0E0,0E0,0E0,0E0,0E0,0E0,0E0,0E0,0E0,0E0,0E0,0E0,0E0,0E0,0E0,0E0],"parents":[2147483647,0,0,1,1,2,2,3,3,4,4,5,5,6,6,7,7,8,8,9,9,10,10,11,11,12,12,13,13,15,15,16,16,17,17,18,18,19,19,20,20,21,21,23,23,25,25,26,26,27,27,28,28],"right_children":[2,4,6,8,10,12,14,16,18,20,22,24,26,28,-1,30,32,34,36,38,40,42,-1,44,-1,46,48,50,52,-1,-1,-1,-1,-1,-1,-1,-1,-1,-1,-1,-1,-1,-1,-1,-1,-1,-1,-1,-1,-1,-1,-1,-1],"split_conditions":[1.69E3,2E0,1E0,4E0,4.52E2,1.07E2,7E0,2E0,1E0,4.5E2,1E0,1E0,1E0,1.8E2,1.2329512E5,1E0,8.52E2,1.422E3,9.47E2,3E0,3E0,1E0,4.116068E4,2.8E1,7.6226586E4,1E0,5E0,1.3E1,4E0,-3.2585828E3,-2.2653856E1,-6.5229707E3,-1.5519245E4,6.510244E2,2.0779633E4,5.21111E3,3.1181072E4,4.0775317E3,1.277165E4,1.747748E4,4.5320332E4,5.211608E2,1.3459641E4,2.6888375E4,-7.390069E3,-3.2882832E3,1.8060484E4,2.8256895E4,3.3945945E3,-1.4620494E4,1.7517408E4,1.6010171E4,4.673952E4],"split_indices":[2,5,23,8,4,4,1,8,20,4,13,10,20,4,0,8,2,2,2,1,0,23,0,6,0,15,0,3,1,0,0,0,0,0,0,0,0,0,0,0,0,0,0,0,0,0,0,0,0,0,0,0,0],"split_type":[0,0,0,0,0,0,0,0,0,0,0,0,0,0,0,0,0,0,0,0,0,0,0,0,0,0,0,0,0,0,0,0,0,0,0,0,0,0,0,0,0,0,0,0,0,0,0,0,0,0,0,0,0],"sum_hessian":[3.052E3,2.926E3,1.26E2,2.089E3,8.37E2,1.12E2,1.4E1,1.838E3,2.51E2,2.59E2,5.78E2,8E0,1.04E2,1.3E1,1E0,1.646E3,1.92E2,2.32E2,1.9E1,2.5E2,9E0,5.77E2,1E0,6E0,2E0,6.2E1,4.2E1,6E0,7E0,9.89E2,6.57E2,1.83E2,9E0,2.27E2,5E0,1.3E1,6E0,1.94E2,5.6E1,5E0,4E0,5.59E2,1.8E1,5E0,1E0,4.5E1,1.7E1,3E1,1.2E1,1E0,5E0,4E0,3E0],"tree_param":{"num_deleted":"0","num_feature":"27","num_nodes":"53","size_leaf_vector":"1"}},{"base_weights":[1.6699231E3,-3.1901345E3,2.001105E5,-1.5000493E4,3.5751207E4,1.5717767E5,4.5486956E5,3.0206219E4,-2.0067428E4,3.3952176E4,6.412399E4,1.845596E5,-5.756582E4,7.9454336E4,8.143939E5,1.2572869E5,1.7477863E4,-2.7432002E4,1.3796266E3,1.5169352E4,7.002727E4,1.209474E5,3.4000666E5,2.8814303E4,-2.1113746E4,-1.3889469E4,1.5090308E4,4.323406E4,1.1713037E5,7.167672E3,2.2586855E4,1.3729946E3,3.9102645E4,-4.2167617E3,-1.6348976E3,6.3137266E3,-4.3770468E2,7.11473E1,9.509061E3,4.1694703E4,6.22821E3,3.9207938E4,7.3711206E3,4.2517793E4,-2.180153E3,1.2592644E4,-1.5793412E3],"categories":[],"categories_nodes":[],"categories_segments":[],"categories_sizes":[],"default_left":[0,0,0,0,0,0,0,0,0,0,0,0,0,0,0,0,0,0,0,0,0,0,0,0,0,0,0,0,0,0,0,0,0,0,0,0,0,0,0,0,0,0,0,0,0,0,0],"id":19,"left_children":[1,3,5,7,9,11,13,15,17,19,-1,21,23,25,27,29,31,33,35,37,39,41,43,45,-1,-1,-1,-1,-1,-1,-1,-1,-1,-1,-1,-1,-1,-1,-1,-1,-1,-1,-1,-1,-1,-1,-1],"loss_changes":[2.9450513E12,1.3715315E12,7.269442E11,5.246941E11,7.341978E11,3.8695023E11,1.285002E12,2.786625E11,3.2509565E11,4.685092E11,0E0,5.225117E11,1.1220807E11,1.1456422E11,1.7539059E11,1.2995494E11,2.8163716E11,2.4950958E11,1.8763463E11,5.279921E11,6.1083995E11,5.0900356E11,5.0231994E11,2.7980511E10,0E0,0E0,0E0,0E0,0E0,0E0,0E0,0E0,0E0,0E0,0E0,0E0,0E0,0E0,0E0,0E0,0E0,0E0,0E0,0E0,0E0,0E0,0E0],"parents":[2147483647,0,0,1,1,2,2,3,3,4,4,5,5,6,6,7,7,8,8,9,9,11,11,12,12,13,13,14,14,15,15,16,16,17,17,18,18,19,19,20,20,21,21,22,22,23,23],"right_children":[2,4,6,8,10,12,14,16,18,20,-1,22,24,26,28,30,32,34,36,38,40,42,44,46,-1,-1,-1,-1,-1,-1,-1,-1,-1,-1,-1,-1,-1,-1,-1,-1,-1,-1,-1,-1,-1,-1,-1],"split_conditions":[4E0,1.115E3,1E0,9E0,1E1,6E0,1.8E2,6E0,1E0,1E0,6.412399E4,2.74706E3,1.1E1,1.3E1,7E0,1E0,1E0,8.06E2,1.2E1,2.6E1,5E0,1.2E2,1.8E1,2.74706E3,-2.1113746E4,-1.3889469E4,1.5090308E4,4.323406E4,1.1713037E5,7.167672E3,2.2586855E4,1.3729946E3,3.9102645E4,-4.2167617E3,-1.6348976E3,6.3137266E3,-4.3770468E2,7.11473E1,9.509061E3,4.1694703E4,6.22821E3,3.9207938E4,7.3711206E3,4.2517793E4,-2.180153E3,1.2592644E4,-1.5793412E3],"split_indices":[1,2,23,6,0,0,4,11,20,20,0,2,11,3,1,15,13,2,6,3,6,4,6,2,0,0,0,0,0,0,0,0,0,0,0,0,0,0,0,0,0,0,0,0,0,0,0],"split_type":[0,0,0,0,0,0,0,0,0,0,0,0,0,0,0,0,0,0,0,0,0,0,0,0,0,0,0,0,0,0,0,0,0,0,0,0,0,0,0,0,0,0,0,0,0,0,0],"sum_hessian":[3.052E3,2.98E3,7.2E1,2.287E3,6.93E2,6.3E1,9E0,2.3E2,2.057E3,6.92E2,1E0,5.6E1,7E0,5E0,4E0,2.6E1,2.04E2,1.531E3,5.26E2,4.56E2,2.36E2,4.1E1,1.5E1,5E0,2E0,1E0,4E0,3E0,1E0,1.8E1,8E0,2.03E2,1E0,6.56E2,8.75E2,4.4E1,4.82E2,3.87E2,6.9E1,4E0,2.32E2,5E0,3.6E1,1.2E1,3E0,1E0,4E0],"tree_param":{"num_deleted":"0","num_feature":"27","num_nodes":"47","size_leaf_vector":"1"}},{"base_weights":[1.6438672E3,-2.806748E3,1.8336495E5,-1.5463481E4,2.7428773E4,1.4266016E5,4.255392E5,-2.1170072E4,2.5769082E4,2.6073908E4,6.091779E4,1.676285E5,-5.307178E4,7.1709086E4,7.6502744E5,-1.396706E4,-4.6302816E4,1.6941906E4,2.4122338E5,6.1330785E4,9.404155E3,1.0996169E5,3.0852712E5,2.7768438E4,-1.9706162E4,-1.3194994E4,1.3883088E4,3.9991508E4,1.1127385E5,-3.4789001E3,-1.092806E2,-4.852853E3,4.7801255E3,6.7655896E2,1.3210483E4,2.797517E4,-5.2765815E3,5.2831245E3,2.8723525E4,5.378705E2,1.1975206E4,3.594061E4,6.6539297E3,5.7006895E3,4.1767203E4,1.1963013E4,-1.4529926E3],"categories":[],"categories_nodes":[],"categories_segments":[],"categories_sizes":[],"default_left":[0,0,0,0,0,0,0,0,0,0,0,0,0,0,0,0,0,0,0,0,0,0,0,0,0,0,0,0,0,0,0,0,0,0,0,0,0,0,0,0,0,0,0,0,0,0,0],"id":20,"left_children":[1,3,5,7,9,11,13,15,17,19,-1,21,23,25,27,29,31,33,35,37,39,41,43,45,-1,-1,-1,-1,-1,-1,-1,-1,-1,-1,-1,-1,-1,-1,-1,-1,-1,-1,-1,-1,-1,-1,-1],"loss_changes":[2.4696914E12,1.1412021E12,6.589013E11,4.9514057E11,6.7772514E11,3.2167074E11,1.1463522E12,3.3371836E11,4.8278746E11,5.1603217E11,0E0,4.292089E11,9.859346E10,1.00338475E11,1.8976709E11,3.8517418E11,8.8403214E10,2.8857405E11,1.28030474E11,5.262888E11,2.649875E11,4.3100724E11,4.154243E11,2.5051812E10,0E0,0E0,0E0,0E0,0E0,0E0,0E0,0E0,0E0,0E0,0E0,0E0,0E0,0E0,0E0,0E0,0E0,0E0,0E0,0E0,0E0,0E0,0E0],"parents":[2147483647,0,0,1,1,2,2,3,3,4,4,5,5,6,6,7,7,8,8,9,9,11,11,12,12,13,13,14,14,15,15,16,16,17,17,18,18,19,19,20,20,21,21,22,22,23,23],"right_children":[2,4,6,8,10,12,14,16,18,20,-1,22,24,26,28,30,32,34,36,38,40,42,44,46,-1,-1,-1,-1,-1,-1,-1,-1,-1,-1,-1,-1,-1,-1,-1,-1,-1,-1,-1,-1,-1,-1,-1],"split_conditions":[4E0,2E0,1E0,4E0,1E1,6E0,1.8E2,1.4E1,1.422E3,4.52E2,6.091779E4,2.74706E3,1.1E1,1.3E1,7E0,5E0,1.235E3,1E0,6.34E2,4.5E2,1E0,1.2E2,1E0,2.74706E3,-1.9706162E4,-1.3194994E4,1.3883088E4,3.9991508E4,1.1127385E5,-3.4789001E3,-1.092806E2,-4.852853E3,4.7801255E3,6.7655896E2,1.3210483E4,2.797517E4,-5.2765815E3,5.2831245E3,2.8723525E4,5.378705E2,1.1975206E4,3.594061E4,6.6539297E3,5.7006895E3,4.1767203E4,1.1963013E4,-1.4529926E3],"split_indices":[1,5,23,8,0,0,4,11,2,4,0,2,11,3,1,11,4,20,4,4,23,4,7,2,0,0,0,0,0,0,0,0,0,0,0,0,0,0,0,0,0,0,0,0,0,0,0],"split_type":[0,0,0,0,0,0,0,0,0,0,0,0,0,0,0,0,0,0,0,0,0,0,0,0,0,0,0,0,0,0,0,0,0,0,0,0,0,0,0,0,0,0,0,0,0,0,0],"sum_hessian":[3.052E3,2.98E3,7.2E1,2.101E3,8.79E2,6.3E1,9E0,1.846E3,2.55E2,8.78E2,1E0,5.6E1,7E0,5E0,4E0,1.436E3,4.1E2,2.46E2,9E0,2.81E2,5.97E2,4.1E1,1.5E1,5E0,2E0,1E0,4E0,3E0,1E0,5.48E2,8.88E2,4.01E2,9E0,2.27E2,1.9E1,8E0,1E0,2.72E2,9E0,5.77E2,2E1,5E0,3.6E1,5E0,1E1,1E0,4E0],"tree_param":{"num_deleted":"0","num_feature":"27","num_nodes":"47","size_leaf_vector":"1"}},{"base_weights":[1.6017144E3,-3.8434485E3,1.270851E5,-1.6374265E4,1.8773316E4,9.973492E4,3.2465075E5,-2.0429064E4,2.0313873E4,1.0835251E5,1.4252981E4,-1.7375354E4,1.403727E5,1.9682556E5,1.05710164E5,-3.718822E4,-1.4148192E4,1.9743275E5,6.0282847E3,6.962342E4,3.3631353E5,6.1221656E4,6.1686523E3,-4.0694617E4,1.0735989E5,7.840651E4,2.7558934E5,8.45007E4,2.7050662E5,-2.7739456E2,-4.5971284E3,3.2326775E3,-1.9781464E3,8.984921E3,3.259026E4,-7.5354688E3,1.1417281E3,1.8057832E3,1.587346E4,3.818098E4,3.1668032E3,3.7846724E3,1.6284278E4,-8.1952686E2,2.2579363E3,1.0283856E4,-5.0549487E3,-1.2081438E3,1.4024058E4,2.9446763E3,1.594094E4,3.232441E4,-1.975117E4,-1.2535244E4,1.403683E4,1.806E3,3.0399041E4],"categories":[],"categories_nodes":[],"categories_segments":[],"categories_sizes":[],"default_left":[0,0,0,0,0,0,0,0,0,0,0,0,0,0,0,0,0,0,0,0,0,0,0,0,0,0,0,0,0,0,0,0,0,0,0,0,0,0,0,0,0,0,0,0,0,0,0,0,0,0,0,0,0,0,0,0,0],"id":21,"left_children":[1,3,5,7,9,11,13,15,17,19,21,23,25,27,-1,29,31,33,35,37,39,41,43,45,47,49,51,53,55,-1,-1,-1,-1,-1,-1,-1,-1,-1,-1,-1,-1,-1,-1,-1,-1,-1,-1,-1,-1,-1,-1,-1,-1,-1,-1,-1,-1],"loss_changes":[2.0865345E12,8.298383E11,6.538599E11,2.8068463E11,4.2120043E11,5.4021744E11,1.1963204E12,1.7810365E11,4.7449634E11,4.180208E11,3.7743398E11,9.163099E10,6.8221626E11,9.300902E10,0E0,1.3951789E11,3.2423176E11,1.6421526E11,7.761054E10,1.9931672E11,8.49304E10,3.4064345E11,2.0054884E11,4.1975456E10,2.133087E10,2.2929297E11,6.500277E11,9.966345E10,6.2132912E10,0E0,0E0,0E0,0E0,0E0,0E0,0E0,0E0,0E0,0E0,0E0,0E0,0E0,0E0,0E0,0E0,0E0,0E0,0E0,0E0,0E0,0E0,0E0,0E0,0E0,0E0,0E0,0E0],"parents":[2147483647,0,0,1,1,2,2,3,3,4,4,5,5,6,6,7,7,8,8,9,9,10,10,11,11,12,12,13,13,15,15,16,16,17,17,18,18,19,19,20,20,21,21,22,22,23,23,24,24,25,25,26,26,27,27,28,28],"right_children":[2,4,6,8,10,12,14,16,18,20,22,24,26,28,-1,30,32,34,36,38,40,42,44,46,48,50,52,54,56,-1,-1,-1,-1,-1,-1,-1,-1,-1,-1,-1,-1,-1,-1,-1,-1,-1,-1,-1,-1,-1,-1,-1,-1,-1,-1,-1,-1],"split_conditions":[1.69E3,1.001E3,1E0,3E1,3E0,1E0,7E0,7E2,3.03E2,3E0,9E0,5E0,1.3E1,1.8E2,1.05710164E5,2E0,3E0,9.15E2,5.41E2,2E0,1E0,1.398E3,2E0,1E0,5E0,1.3E1,1E0,1.3E1,3E0,-2.7739456E2,-4.5971284E3,3.2326775E3,-1.9781464E3,8.984921E3,3.259026E4,-7.5354688E3,1.1417281E3,1.8057832E3,1.587346E4,3.818098E4,3.1668032E3,3.7846724E3,1.6284278E4,-8.1952686E2,2.2579363E3,1.0283856E4,-5.0549487E3,-1.2081438E3,1.4024058E4,2.9446763E3,1.594094E4,3.232441E4,-1.975117E4,-1.2535244E4,1.403683E4,1.806E3,3.0399041E4],"split_indices":[2,2,23,3,0,7,1,2,4,1,6,1,11,4,0,0,0,2,2,8,23,2,5,9,0,6,18,3,1,0,0,0,0,0,0,0,0,0,0,0,0,0,0,0,0,0,0,0,0,0,0,0,0,0,0,0,0],"split_type":[0,0,0,0,0,0,0,0,0,0,0,0,0,0,0,0,0,0,0,0,0,0,0,0,0,0,0,0,0,0,0,0,0,0,0,0,0,0,0,0,0,0,0,0,0,0,0,0,0,0,0,0,0,0,0,0,0],"sum_hessian":[3.052E3,2.926E3,1.26E2,1.883E3,1.043E3,1.12E2,1.4E1,1.696E3,1.87E2,4.9E1,9.94E2,2.9E1,8.3E1,1.3E1,1E0,4.61E2,1.235E3,1.3E1,1.74E2,4.3E1,6E0,1.45E2,8.49E2,2.5E1,4E0,5.8E1,2.5E1,6E0,7E0,9.4E1,3.67E2,1.33E2,1.102E3,8E0,5E0,1E1,1.64E2,2.8E1,1.5E1,5E0,1E0,1.19E2,2.6E1,4.53E2,3.96E2,1E0,2.4E1,1E0,3E0,3.7E1,2.1E1,2.3E1,2E0,1E0,5E0,1E0,6E0],"tree_param":{"num_deleted":"0","num_feature":"27","num_nodes":"57","size_leaf_vector":"1"}},{"base_weights":[1.5401415E3,-2.2326814E3,1.5558458E5,-1.0604204E4,3.093675E4,1.1900606E5,3.7412866E5,-1.67214E3,-2.6719928E4,2.9113123E4,5.6255676E4,1.4442008E5,-5.2348445E4,1.9253261E5,1.0042465E5,5.9402324E3,-2.6492287E4,-2.7935967E4,8.988105E4,2.085153E4,1.0177127E5,1.1840627E5,5.6452844E4,-1.2312311E5,1.30241914E5,-5.499475E4,2.711111E5,-1.97847E3,1.7387323E3,3.632695E4,-2.8589868E3,-4.753174E3,-2.166699E3,1.4728417E4,-1.8693906E3,8.958799E3,1.0591649E3,-4.4009004E3,1.3121856E4,1.5456791E4,-7.957608E3,-1.1845438E3,-1.652651E4,1.795712E4,1.5791688E3,-1.1908481E4,3.6592688E3,1.2732226E4,3.471222E4],"categories":[],"categories_nodes":[],"categories_segments":[],"categories_sizes":[],"default_left":[0,0,0,0,0,0,0,0,0,0,0,0,0,0,0,0,0,0,0,0,0,0,0,0,0,0,0,0,0,0,0,0,0,0,0,0,0,0,0,0,0,0,0,0,0,0,0,0,0],"id":22,"left_children":[1,3,5,7,9,11,13,15,17,19,-1,21,23,25,-1,27,29,31,33,35,37,39,-1,41,43,45,47,-1,-1,-1,-1,-1,-1,-1,-1,-1,-1,-1,-1,-1,-1,-1,-1,-1,-1,-1,-1,-1,-1],"loss_changes":[1.7746972E12,8.280881E11,5.3903963E11,3.4269236E11,5.6627796E11,2.8626774E11,9.5091884E11,2.898027E11,1.2289173E11,3.580411E11,0E0,5.4515873E11,1.3234074E11,1.8996265E11,0E0,3.4605836E11,3.0470613E11,1.0228315E11,5.884619E10,3.7987408E11,2.6763762E11,3.9890557E11,0E0,3.0868603E10,1.4101504E10,2.1967167E10,3.2310395E10,0E0,0E0,0E0,0E0,0E0,0E0,0E0,0E0,0E0,0E0,0E0,0E0,0E0,0E0,0E0,0E0,0E0,0E0,0E0,0E0,0E0,0E0],"parents":[2147483647,0,0,1,1,2,2,3,3,4,4,5,5,6,6,7,7,8,8,9,9,11,11,12,12,13,13,15,15,16,16,17,17,18,18,19,19,20,20,21,21,23,23,24,24,25,25,26,26],"right_children":[2,4,6,8,10,12,14,16,18,20,-1,22,24,26,-1,28,30,32,34,36,38,40,-1,42,44,46,48,-1,-1,-1,-1,-1,-1,-1,-1,-1,-1,-1,-1,-1,-1,-1,-1,-1,-1,-1,-1,-1,-1],"split_conditions":[4E0,1.173E3,1E0,1E0,1E1,1.8E1,7E0,1.4E1,4.4E1,5E0,5.6255676E4,1.7E1,2.1E1,1.9E3,1.0042465E5,5E0,1E0,7.08E2,9E0,9E0,6E0,3.2E1,5.6452844E4,1E0,5E0,1.3E1,1.36E2,-1.97847E3,1.7387323E3,3.632695E4,-2.8589868E3,-4.753174E3,-2.166699E3,1.4728417E4,-1.8693906E3,8.958799E3,1.0591649E3,-4.4009004E3,1.3121856E4,1.5456791E4,-7.957608E3,-1.1845438E3,-1.652651E4,1.795712E4,1.5791688E3,-1.1908481E4,3.6592688E3,1.2732226E4,3.471222E4],"split_indices":[1,2,23,25,0,6,1,11,3,8,0,6,3,2,0,11,6,2,6,6,11,3,0,7,1,3,4,0,0,0,0,0,0,0,0,0,0,0,0,0,0,0,0,0,0,0,0,0,0],"split_type":[0,0,0,0,0,0,0,0,0,0,0,0,0,0,0,0,0,0,0,0,0,0,0,0,0,0,0,0,0,0,0,0,0,0,0,0,0,0,0,0,0,0,0,0,0,0,0,0,0],"sum_hessian":[3.052E3,2.98E3,7.2E1,2.38E3,6E2,6.3E1,9E0,1.532E3,8.48E2,5.99E2,1E0,5.5E1,8E0,8E0,1E0,1.173E3,3.59E2,8.4E2,8E0,5.39E2,6E1,5.3E1,2E0,6E0,2E0,2E0,6E0,3.61E2,8.12E2,1E0,3.58E2,2.02E2,6.38E2,5E0,3E0,6.9E1,4.7E2,1E1,5E1,4.5E1,8E0,2E0,4E0,1E0,1E0,1E0,1E0,3E0,3E0],"tree_param":{"num_deleted":"0","num_feature":"27","num_nodes":"49","size_leaf_vector":"1"}},{"base_weights":[1.4907986E3,-1.9711162E3,1.428398E5,-2.1775018E4,1.0216968E4,1.0813325E5,3.5067775E5,1.6026505E3,-2.6681305E4,9.643179E3,5.3442887E4,1.30396945E5,-6.4012258E4,1.7763436E5,9.5403414E4,-2.1729346E3,9.154441E4,-2.1050566E4,-4.404713E4,-1.3897539E3,3.6875566E4,7.855278E4,2.5833806E5,1.6309583E4,-2.0331852E4,-5.2245E4,2.5077775E5,-1.4985355E3,1.299371E3,3.004875E3,1.0703483E4,-2.299348E3,4.3882886E3,-4.194095E3,-1.8873232E4,-6.982642E2,8.272514E3,2.1689955E4,3.2304053E3,2.926891E4,4.1704927E3,3.3184656E4,-4.5149033E3,1.0965694E4,-2.4291277E3,-1.1313057E4,3.4763064E3,1.1777307E4,3.21088E4],"categories":[],"categories_nodes":[],"categories_segments":[],"categories_sizes":[],"default_left":[0,0,0,0,0,0,0,0,0,0,0,0,0,0,0,0,0,0,0,0,0,0,0,0,0,0,0,0,0,0,0,0,0,0,0,0,0,0,0,0,0,0,0,0,0,0,0,0,0],"id":23,"left_children":[1,3,5,7,9,11,13,15,17,19,-1,21,23,25,-1,27,29,31,33,35,37,39,41,43,-1,45,47,-1,-1,-1,-1,-1,-1,-1,-1,-1,-1,-1,-1,-1,-1,-1,-1,-1,-1,-1,-1,-1,-1],"loss_changes":[1.494231E12,7.197513E11,4.8865385E11,1.3033918E11,5.500993E11,2.5363317E11,8.7459915E11,6.7436306E10,9.08905E10,5.5438724E11,0E0,3.577879E11,9.283072E10,1.6442927E11,0E0,3.7310108E10,4.404486E9,9.070877E10,6.1868245E10,6.1874255E11,4.3081977E11,3.191929E11,3.719246E11,2.5403603E10,0E0,1.982537E10,2.764564E10,0E0,0E0,0E0,0E0,0E0,0E0,0E0,0E0,0E0,0E0,0E0,0E0,0E0,0E0,0E0,0E0,0E0,0E0,0E0,0E0,0E0,0E0],"parents":[2147483647,0,0,1,1,2,2,3,3,4,4,5,5,6,6,7,7,8,8,9,9,11,11,12,12,13,13,15,15,16,16,17,17,18,18,19,19,20,20,21,21,22,22,23,23,25,25,26,26],"right_children":[2,4,6,8,10,12,14,16,18,20,-1,22,24,26,-1,28,30,32,34,36,38,40,42,44,-1,46,48,-1,-1,-1,-1,-1,-1,-1,-1,-1,-1,-1,-1,-1,-1,-1,-1,-1,-1,-1,-1,-1,-1],"split_conditions":[4E0,1E0,1E0,4.34E2,1E1,6E0,7E0,1E0,1.3E1,1E0,5.3442887E4,2.74706E3,1.1E1,1.9E3,9.5403414E4,1.8E1,8.44E2,1E0,1.539E3,1E0,5E0,1.2E2,1.8E1,2.74706E3,-2.0331852E4,1.3E1,1.36E2,-1.4985355E3,1.299371E3,3.004875E3,1.0703483E4,-2.299348E3,4.3882886E3,-4.194095E3,-1.8873232E4,-6.982642E2,8.272514E3,2.1689955E4,3.2304053E3,2.926891E4,4.1704927E3,3.3184656E4,-4.5149033E3,1.0965694E4,-2.4291277E3,-1.1313057E4,3.4763064E3,1.1777307E4,3.21088E4],"split_indices":[1,8,23,4,0,0,1,24,11,20,0,2,11,2,0,3,2,24,2,23,6,4,6,2,0,3,4,0,0,0,0,0,0,0,0,0,0,0,0,0,0,0,0,0,0,0,0,0,0],"split_type":[0,0,0,0,0,0,0,0,0,0,0,0,0,0,0,0,0,0,0,0,0,0,0,0,0,0,0,0,0,0,0,0,0,0,0,0,0,0,0,0,0,0,0,0,0,0,0,0,0],"sum_hessian":[3.052E3,2.98E3,7.2E1,1.135E3,1.845E3,6.3E1,9E0,1.97E2,9.38E2,1.844E3,1E0,5.6E1,7E0,8E0,1E0,1.9E2,7E0,7.1E2,2.28E2,1.313E3,5.31E2,4.1E1,1.5E1,5E0,2E0,2E0,6E0,1.03E2,8.7E1,2E0,5E0,6.9E2,2E1,2.26E2,2E0,1.232E3,8.1E1,1.2E1,5.19E2,5E0,3.6E1,1.2E1,3E0,1E0,4E0,1E0,1E0,3E0,3E0],"tree_param":{"num_deleted":"0","num_feature":"27","num_nodes":"49","size_leaf_vector":"1"}},{"base_weights":[1.4269548E3,-6.5985317E3,5.4672492E4,-1.1238303E4,2.81393E4,3.675409E4,1.4816981E5,-1.3290196E4,3.7434285E4,1.7613633E5,1.6892473E4,3.384141E4,5.077074E4,1.1760754E5,5.7720194E5,-3.2787582E4,-8.500257E3,2.584051E4,1.4534811E5,4.2374453E3,2.0305523E5,2.181149E4,-6.3962906E4,2.5008682E4,1.3819283E5,2.5252055E5,7.941414E4,1.653809E4,9.063325E4,-3.9676387E3,1.1002583E3,3.3110994E3,-1.2371782E3,5.8404087E3,1.0213498E3,3.6814297E4,7.1480874E3,-1.1131573E3,2.517225E3,2.5727803E4,7.3347905E3,3.422858E3,-1.7433285E3,9.541247E3,-7.988715E3,1.2677272E4,1.2882439E3,-9.906595E3,1.858338E4,2.1558525E3,3.5277496E4,4.148616E3,4.048832E4],"categories":[],"categories_nodes":[],"categories_segments":[],"categories_sizes":[],"default_left":[0,0,0,0,0,0,0,0,0,0,0,0,0,0,0,0,0,0,0,0,0,0,0,0,0,0,0,0,0,0,0,0,0,0,0,0,0,0,0,0,0,0,0,0,0,0,0,0,0,0,0,0,0],"id":24,"left_children":[1,3,5,7,9,11,13,15,17,19,21,23,-1,25,27,29,31,33,35,37,39,41,43,45,47,49,51,-1,-1,-1,-1,-1,-1,-1,-1,-1,-1,-1,-1,-1,-1,-1,-1,-1,-1,-1,-1,-1,-1,-1,-1,-1,-1],"loss_changes":[1.3049728E12,4.2807624E11,6.6468315E11,2.3439537E11,5.180122E11,4.450937E11,7.712971E11,2.0966497E11,1.15101385E11,1.0094084E11,1.1753203E11,3.0623777E11,0E0,2.942662E11,3.9228146E11,1.3407276E11,2.9135448E11,4.36753E10,1.2179997E11,1.5671964E9,1.1475793E11,1.35093125E11,5.076707E10,3.8214566E11,3.122939E11,2.934092E11,5.8807786E11,0E0,0E0,0E0,0E0,0E0,0E0,0E0,0E0,0E0,0E0,0E0,0E0,0E0,0E0,0E0,0E0,0E0,0E0,0E0,0E0,0E0,0E0,0E0,0E0,0E0,0E0],"parents":[2147483647,0,0,1,1,2,2,3,3,4,4,5,5,6,6,7,7,8,8,9,9,10,10,11,11,13,13,14,14,15,15,16,16,17,17,18,18,19,19,20,20,21,21,22,22,23,23,24,24,25,25,26,26],"right_children":[2,4,6,8,10,12,14,16,18,20,22,24,-1,26,28,30,32,34,36,38,40,42,44,46,48,50,52,-1,-1,-1,-1,-1,-1,-1,-1,-1,-1,-1,-1,-1,-1,-1,-1,-1,-1,-1,-1,-1,-1,-1,-1,-1,-1],"split_conditions":[1.302E3,3E1,3E0,1E0,3.03E2,1E1,1E0,7E2,1.106E3,3.2E1,1.7E1,5E0,5.077074E4,1.8E1,7E0,1E0,3E0,3E0,1.13E3,1.3E1,1E0,1.196E3,5.81E2,9E0,6E0,1.1E1,1.7E1,1.653809E4,9.063325E4,-3.9676387E3,1.1002583E3,3.3110994E3,-1.2371782E3,5.8404087E3,1.0213498E3,3.6814297E4,7.1480874E3,-1.1131573E3,2.517225E3,2.5727803E4,7.3347905E3,3.422858E3,-1.7433285E3,9.541247E3,-7.988715E3,1.2677272E4,1.2882439E3,-9.906595E3,1.858338E4,2.1558525E3,3.5277496E4,4.148616E3,4.048832E4],"split_indices":[2,3,5,23,4,0,23,2,2,3,6,8,0,3,1,15,0,0,2,6,15,4,2,6,11,11,6,0,0,0,0,0,0,0,0,0,0,0,0,0,0,0,0,0,0,0,0,0,0,0,0,0,0],"split_type":[0,0,0,0,0,0,0,0,0,0,0,0,0,0,0,0,0,0,0,0,0,0,0,0,0,0,0,0,0,0,0,0,0,0,0,0,0,0,0,0,0,0,0,0,0,0,0,0,0,0,0,0,0],"sum_hessian":[3.052E3,2.653E3,3.99E2,2.341E3,3.12E2,3.36E2,6.3E1,2.247E3,9.4E1,2.1E1,2.91E2,3.35E2,1E0,6E1,3E0,4.42E2,1.805E3,8.6E1,8E0,3E0,1.8E1,2.75E2,1.6E1,3.1E2,2.5E1,1.2E1,4.8E1,2E0,1E0,3.82E2,6E1,1.53E2,1.652E3,2.7E1,5.9E1,1E0,7E0,2E0,1E0,1.2E1,6E0,2.09E2,6.6E1,1E0,1.5E1,3.2E1,2.78E2,4E0,2.1E1,4E0,8E0,4.4E1,4E0],"tree_param":{"num_deleted":"0","num_feature":"27","num_nodes":"53","size_leaf_vector":"1"}},{"base_weights":[1.3990302E3,-1.6164008E3,1.2451684E5,-1.1813173E4,1.5855973E4,9.247446E4,3.1713644E5,1.5891405E4,-1.5412501E4,1.4991867E4,4.82322E4,-7.316039E4,1.10870484E5,1.6103692E5,8.61016E4,6.161948E3,1.5652839E5,-1.9274357E4,7.1887085E3,9.419344E4,1.0964453E4,1.6223294E4,-1.9774639E4,-2.828038E4,1.4403942E5,-5.0491562E4,2.2868672E5,3.0546762E2,8.190828E3,-2.0838062E2,2.2018166E4,-2.5582712E3,-3.339056E2,-3.1008013E3,2.5664763E3,5.0173447E3,3.0382748E4,2.656022E2,4.306515E3,-2.3003438E3,8.656511E3,8.971261E3,-7.757945E3,2.2085703E4,4.6707734E3,-1.0811815E4,3.2380813E3,1.0797394E4,2.9222781E4],"categories":[],"categories_nodes":[],"categories_segments":[],"categories_sizes":[],"default_left":[0,0,0,0,0,0,0,0,0,0,0,0,0,0,0,0,0,0,0,0,0,0,0,0,0,0,0,0,0,0,0,0,0,0,0,0,0,0,0,0,0,0,0,0,0,0,0,0,0],"id":25,"left_children":[1,3,5,7,9,11,13,15,17,19,-1,21,23,25,-1,27,29,31,33,35,37,39,-1,41,43,45,47,-1,-1,-1,-1,-1,-1,-1,-1,-1,-1,-1,-1,-1,-1,-1,-1,-1,-1,-1,-1,-1,-1],"loss_changes":[1.1336375E12,5.3128764E11,4.212283E11,1.8801366E11,4.3574955E11,2.031208E11,7.103379E11,2.9596123E11,1.4563872E11,3.492045E11,0E0,8.11598E10,2.717717E11,1.4033546E11,0E0,4.7764152E10,1.4180542E11,1.4306299E11,1.7299263E11,4.738446E11,2.7886056E11,1.5787693E10,0E0,7.676318E10,3.410932E11,1.782791E10,2.2138552E10,0E0,0E0,0E0,0E0,0E0,0E0,0E0,0E0,0E0,0E0,0E0,0E0,0E0,0E0,0E0,0E0,0E0,0E0,0E0,0E0,0E0,0E0],"parents":[2147483647,0,0,1,1,2,2,3,3,4,4,5,5,6,6,7,7,8,8,9,9,11,11,12,12,13,13,15,15,16,16,17,17,18,18,19,19,20,20,21,21,23,23,24,24,25,25,26,26],"right_children":[2,4,6,8,10,12,14,16,18,20,-1,22,24,26,-1,28,30,32,34,36,38,40,-1,42,44,46,48,-1,-1,-1,-1,-1,-1,-1,-1,-1,-1,-1,-1,-1,-1,-1,-1,-1,-1,-1,-1,-1,-1],"split_conditions":[4E0,1.001E3,1E0,3.28E2,1E1,1.598E3,7E0,3.2E1,1E0,3E0,4.82322E4,1.488E3,1E0,1.9E3,8.61016E4,3.22E2,8E0,1E0,1.7E1,3E0,2.6E1,4.67E2,-1.9774639E4,2E0,5E0,1.3E1,1.36E2,3.0546762E2,8.190828E3,-2.0838062E2,2.2018166E4,-2.5582712E3,-3.339056E2,-3.1008013E3,2.5664763E3,5.0173447E3,3.0382748E4,2.656022E2,4.306515E3,-2.3003438E3,8.656511E3,8.971261E3,-7.757945E3,2.2085703E4,4.6707734E3,-1.0811815E4,3.2380813E3,1.0797394E4,2.9222781E4],"split_indices":[1,2,23,4,0,2,1,3,15,0,0,2,7,2,0,4,6,20,3,1,3,4,0,9,0,3,4,0,0,0,0,0,0,0,0,0,0,0,0,0,0,0,0,0,0,0,0,0,0],"split_type":[0,0,0,0,0,0,0,0,0,0,0,0,0,0,0,0,0,0,0,0,0,0,0,0,0,0,0,0,0,0,0,0,0,0,0,0,0,0,0,0,0,0,0,0,0,0,0,0,0],"sum_hessian":[3.052E3,2.98E3,7.2E1,1.882E3,1.098E3,6.3E1,9E0,2.16E2,1.666E3,1.097E3,1E0,6E0,5.7E1,8E0,1E0,2.03E2,1.3E1,1.423E3,2.43E2,5.2E1,1.045E3,4E0,2E0,1.1E1,4.6E1,2E0,6E0,1.96E2,7E0,4E0,9E0,1.019E3,4.04E2,7.9E1,1.64E2,4.4E1,8E0,8.31E2,2.14E2,3E0,1E0,3E0,8E0,2.5E1,2.1E1,1E0,1E0,3E0,3E0],"tree_param":{"num_deleted":"0","num_feature":"27","num_nodes":"49","size_leaf_vector":"1"}},{"base_weights":[1.3404205E3,-4.5635767E3,5.4356246E4,2.9488398E4,-8.608596E3,3.9468543E4,2.0076031E5,2.7244092E4,3.412909E4,-7.465125E3,-9.785362E4,4.9166543E4,-4.266376E4,1.4289214E5,6.353643E5,4.0595698E3,5.437775E4,-3.2538675E2,-2.1102148E4,-8.133583E4,-2.2490766E4,2.0362908E4,1.0289792E5,-9.985553E4,6.944974E3,1.8322302E5,-1.2473344E4,1.3508125E4,8.179652E4,9.862464E3,-8.803258E2,8.047402E3,-4.7015454E2,3.9063684E3,-3.849733E2,-1.7770254E3,-5.2283135E3,-1.1044122E4,-6.0204507E3,-1.5096241E3,1.8595193E4,1.7967914E4,2.0152513E3,-1.0827015E4,4.76725E2,-5.4186045E3,4.521517E3,2.3537338E4,-1.2333453E4],"categories":[],"categories_nodes":[],"categories_segments":[],"categories_sizes":[],"default_left":[0,0,0,0,0,0,0,0,0,0,0,0,0,0,0,0,0,0,0,0,0,0,0,0,0,0,0,0,0,0,0,0,0,0,0,0,0,0,0,0,0,0,0,0,0,0,0,0,0],"id":26,"left_children":[1,3,5,7,9,11,13,15,-1,17,19,21,23,25,27,29,31,33,35,37,-1,39,41,43,45,47,-1,-1,-1,-1,-1,-1,-1,-1,-1,-1,-1,-1,-1,-1,-1,-1,-1,-1,-1,-1,-1,-1,-1],"loss_changes":[9.558532E11,3.7876584E11,6.590402E11,1.9503772E11,2.5000413E11,2.2432652E11,6.134041E11,1.828418E11,0E0,2.3629745E11,4.6765113E10,3.8481946E11,8.580984E10,3.0348696E11,1.6356475E11,1.9305533E11,2.0697265E11,2.2143061E11,8.571663E10,1.1186962E10,0E0,9.6575704E11,5.4911553E11,1.2841189E10,4.222147E10,3.9673266E11,0E0,0E0,0E0,0E0,0E0,0E0,0E0,0E0,0E0,0E0,0E0,0E0,0E0,0E0,0E0,0E0,0E0,0E0,0E0,0E0,0E0,0E0,0E0],"parents":[2147483647,0,0,1,1,2,2,3,3,4,4,5,5,6,6,7,7,9,9,10,10,11,11,12,12,13,13,14,14,15,15,16,16,17,17,18,18,19,19,21,21,22,22,23,23,24,24,25,25],"right_children":[2,4,6,8,10,12,14,16,-1,18,20,22,24,26,28,30,32,34,36,38,-1,40,42,44,46,48,-1,-1,-1,-1,-1,-1,-1,-1,-1,-1,-1,-1,-1,-1,-1,-1,-1,-1,-1,-1,-1,-1,-1],"split_conditions":[3E0,9E0,2.74706E3,1E0,1E0,4.2E1,1E0,2.6E1,3.412909E4,1E0,1.074E3,1E0,4.4E1,4E0,7E0,6E0,1.16E3,2.04E2,7.08E2,2E0,-2.2490766E4,2.6E1,4.52E2,5E0,1.302E3,2E1,-1.2473344E4,1.3508125E4,8.179652E4,9.862464E3,-8.803258E2,8.047402E3,-4.7015454E2,3.9063684E3,-3.849733E2,-1.7770254E3,-5.2283135E3,-1.1044122E4,-6.0204507E3,-1.5096241E3,1.8595193E4,1.7967914E4,2.0152513E3,-1.0827015E4,4.76725E2,-5.4186045E3,4.521517E3,2.3537338E4,-1.2333453E4],"split_indices":[1,6,2,13,16,3,23,3,0,25,2,20,3,5,1,11,4,4,4,1,0,3,4,0,2,6,0,0,0,0,0,0,0,0,0,0,0,0,0,0,0,0,0,0,0,0,0,0,0],"split_type":[0,0,0,0,0,0,0,0,0,0,0,0,0,0,0,0,0,0,0,0,0,0,0,0,0,0,0,0,0,0,0,0,0,0,0,0,0,0,0,0,0,0,0,0,0,0,0,0,0],"sum_hessian":[3.052E3,2.747E3,3.05E2,2.91E2,2.456E3,2.78E2,2.7E1,2.9E2,1E0,2.426E3,3E1,2.49E2,2.9E1,2.5E1,2E0,1.57E2,1.33E2,1.593E3,8.33E2,2.8E1,2E0,1.63E2,8.6E1,1.3E1,1.6E1,2.2E1,3E0,1E0,1E0,1.8E1,1.39E2,9.2E1,4.1E1,1.3E2,1.463E3,7.54E2,7.9E1,1E1,1.8E1,1.35E2,2.8E1,4.4E1,4.2E1,1.2E1,1E0,6E0,1E1,1.9E1,3E0],"tree_param":{"num_deleted":"0","num_feature":"27","num_nodes":"49","size_leaf_vector":"1"}},{"base_weights":[1.2481432E3,-1.2955538E3,1.05104484E5,-1.6449877E4,8.0308853E3,7.538747E4,2.8478294E5,-2.1267787E4,1.5306136E3,7.551295E3,4.4643727E4,9.5274055E4,-7.5727875E4,1.4374392E5,7.77067E4,-2.3638264E4,1.613183E4,-1.0537718E4,1.624215E4,4.632212E3,7.025509E4,5.242143E4,2.0180756E5,-2.025625E3,-1.9788975E4,-1.0195744E4,1.8720127E5,-2.2206345E3,-9.626279E3,5.45135E3,-2.4268857E3,-4.321319E2,-4.544431E3,-5.8146625E2,2.765766E3,-5.6221436E2,2.8389707E3,3.09976E4,5.066314E3,8.3323E3,-1.1398974E4,-7.2113843E3,2.705674E4,9.2210625E3,-3.9315E3,9.3413125E3,2.5763613E4],"categories":[],"categories_nodes":[],"categories_segments":[],"categories_sizes":[],"default_left":[0,0,0,0,0,0,0,0,0,0,0,0,0,0,0,0,0,0,0,0,0,0,0,0,0,0,0,0,0,0,0,0,0,0,0,0,0,0,0,0,0,0,0,0,0,0,0],"id":27,"left_children":[1,3,5,7,9,11,13,15,17,19,-1,21,23,25,-1,27,29,31,33,35,37,39,41,43,-1,-1,45,-1,-1,-1,-1,-1,-1,-1,-1,-1,-1,-1,-1,-1,-1,-1,-1,-1,-1,-1,-1],"loss_changes":[8.066748E11,4.2145435E11,3.68315E11,9.844241E10,3.8476015E11,1.9954565E11,5.8261386E11,7.981616E10,4.2959192E10,3.3737893E11,0E0,2.496396E11,7.162798E10,1.1518434E11,0E0,8.552812E10,8.505785E10,2.866373E10,2.7605905E10,4.299014E11,3.694169E11,2.2547736E11,3.2086845E11,2.4709327E10,0E0,0E0,2.878102E10,0E0,0E0,0E0,0E0,0E0,0E0,0E0,0E0,0E0,0E0,0E0,0E0,0E0,0E0,0E0,0E0,0E0,0E0,0E0,0E0],"parents":[2147483647,0,0,1,1,2,2,3,3,4,4,5,5,6,6,7,7,8,8,9,9,11,11,12,12,13,13,15,15,16,16,17,17,18,18,19,19,20,20,21,21,22,22,23,23,26,26],"right_children":[2,4,6,8,10,12,14,16,18,20,-1,22,24,26,-1,28,30,32,34,36,38,40,42,44,-1,-1,46,-1,-1,-1,-1,-1,-1,-1,-1,-1,-1,-1,-1,-1,-1,-1,-1,-1,-1,-1,-1],"split_conditions":[4E0,1E0,1E0,1.4E1,1E1,6E0,7E0,1E0,7E0,1E0,4.4643727E4,2.74706E3,1.1E1,1.3E1,7.77067E4,1.285E3,1.3E1,9.04E2,1.8E1,1E0,1E1,3.2E1,1.36E2,2.74706E3,-1.9788975E4,-1.0195744E4,1.36E2,-2.2206345E3,-9.626279E3,5.45135E3,-2.4268857E3,-4.321319E2,-4.544431E3,-5.8146625E2,2.765766E3,-5.6221436E2,2.8389707E3,3.09976E4,5.066314E3,8.3323E3,-1.1398974E4,-7.2113843E3,2.705674E4,9.2210625E3,-3.9315E3,9.3413125E3,2.5763613E4],"split_indices":[1,8,23,6,0,0,1,24,11,23,0,2,11,3,0,2,11,2,3,20,3,3,4,2,0,0,4,0,0,0,0,0,0,0,0,0,0,0,0,0,0,0,0,0,0,0,0],"split_type":[0,0,0,0,0,0,0,0,0,0,0,0,0,0,0,0,0,0,0,0,0,0,0,0,0,0,0,0,0,0,0,0,0,0,0,0,0,0,0,0,0,0,0,0,0,0,0],"sum_hessian":[3.052E3,2.98E3,7.2E1,1.135E3,1.845E3,6.3E1,9E0,8.95E2,2.4E2,1.844E3,1E0,5.6E1,7E0,8E0,1E0,8.42E2,5.3E1,1.32E2,1.08E2,1.763E3,8.1E1,4.1E1,1.5E1,5E0,2E0,1E0,7E0,8.27E2,1.5E1,2.7E1,2.6E1,1.13E2,1.9E1,3.7E1,7.1E1,1.232E3,5.31E2,5E0,7.6E1,3.5E1,6E0,3E0,1.2E1,1E0,4E0,4E0,3E0],"tree_param":{"num_deleted":"0","num_feature":"27","num_nodes":"47","size_leaf_vector":"1"}},{"base_weights":[1.1810608E3,-4.7346533E3,4.042887E4,-1.7469555E4,2.179427E3,3.1505117E4,1.675819E5,-9.801E3,-3.5905484E4,4.646067E4,-1.6190778E3,2.932136E4,4.241154E4,1.1522808E5,7.3821375E4,-2.3470512E4,4.403389E3,-4.1578805E4,1.3458048E4,4.199731E4,3.2450744E4,-7.1784497E3,1.5921924E4,-1.070423E4,4.781247E4,8.254392E3,1.8599358E5,4.872244E3,-2.6286013E3,-5.0169414E3,9.516259E2,6.2946576E2,-4.678267E3,1.5165644E4,-8.320859E2,2.822146E3,1.2461715E4,-9.0345795E2,5.1659233E3,6.37078E2,6.6078423E3,2.2774135E4,-2.5380466E3,-1.0367904E4,5.439212E3,-6.3581313E3,1.0717351E4,2.405221E4,6.4113765E3],"categories":[],"categories_nodes":[],"categories_segments":[],"categories_sizes":[],"default_left":[0,0,0,0,0,0,0,0,0,0,0,0,0,0,0,0,0,0,0,0,0,0,0,0,0,0,0,0,0,0,0,0,0,0,0,0,0,0,0,0,0,0,0,0,0,0,0,0,0],"id":28,"left_children":[1,3,5,7,9,11,13,15,17,19,21,23,-1,25,-1,27,29,31,33,35,-1,37,39,41,43,45,47,-1,-1,-1,-1,-1,-1,-1,-1,-1,-1,-1,-1,-1,-1,-1,-1,-1,-1,-1,-1,-1,-1],"loss_changes":[7.090333E11,2.337231E11,4.485932E11,1.3169413E11,2.8955178E11,3.0907666E11,6.916807E11,1.2844778E11,7.72947E10,1.5515084E11,1.5477619E11,2.773157E11,0E0,1.8771588E11,0E0,6.977913E10,9.11601E10,6.157969E10,8.854639E10,1.5013452E11,0E0,1.320652E11,1.8257684E11,4.2221876E11,2.6081021E11,8.497939E10,8.426809E10,0E0,0E0,0E0,0E0,0E0,0E0,0E0,0E0,0E0,0E0,0E0,0E0,0E0,0E0,0E0,0E0,0E0,0E0,0E0,0E0,0E0,0E0],"parents":[2147483647,0,0,1,1,2,2,3,3,4,4,5,5,6,6,7,7,8,8,9,9,10,10,11,11,13,13,15,15,16,16,17,17,18,18,19,19,21,21,22,22,23,23,24,24,25,25,26,26],"right_children":[2,4,6,8,10,12,14,16,18,20,22,24,-1,26,-1,28,30,32,34,36,-1,38,40,42,44,46,48,-1,-1,-1,-1,-1,-1,-1,-1,-1,-1,-1,-1,-1,-1,-1,-1,-1,-1,-1,-1,-1,-1],"split_conditions":[1.302E3,8E2,1E0,1.4E1,3E0,1E1,7E0,5E0,1E0,1E0,1E0,2E0,4.241154E4,1.8E2,7.3821375E4,2E0,4.94E2,4.62E2,2E0,1.3E1,3.2450744E4,1E0,3.2E1,3E0,1E0,1.9E3,9E0,4.872244E3,-2.6286013E3,-5.0169414E3,9.516259E2,6.2946576E2,-4.678267E3,1.5165644E4,-8.320859E2,2.822146E3,1.2461715E4,-9.0345795E2,5.1659233E3,6.37078E2,6.6078423E3,2.2774135E4,-2.5380466E3,-1.0367904E4,5.439212E3,-6.3581313E3,1.0717351E4,2.405221E4,6.4113765E3],"split_indices":[2,2,23,11,0,0,1,11,15,13,20,5,0,4,0,0,2,4,0,6,0,24,3,0,8,2,11,0,0,0,0,0,0,0,0,0,0,0,0,0,0,0,0,0,0,0,0,0,0],"split_type":[0,0,0,0,0,0,0,0,0,0,0,0,0,0,0,0,0,0,0,0,0,0,0,0,0,0,0,0,0,0,0,0,0,0,0,0,0,0,0,0,0,0,0,0,0,0,0,0,0],"sum_hessian":[3.052E3,2.653E3,3.99E2,9.33E2,1.72E3,3.74E2,2.5E1,6.6E2,2.73E2,1.35E2,1.585E3,3.73E2,1E0,2.4E1,1E0,3.36E2,3.24E2,2.45E2,2.8E1,1.34E2,1E0,1.204E3,3.81E2,1.18E2,2.55E2,1E1,1.4E1,1.2E1,3.24E2,2.7E1,2.97E2,2.4E1,2.21E2,3E0,2.5E1,1.16E2,1.8E1,1.168E3,3.6E1,3.21E2,6E1,6E0,1.12E2,1E1,2.45E2,6E0,4E0,9E0,5E0],"tree_param":{"num_deleted":"0","num_feature":"27","num_nodes":"49","size_leaf_vector":"1"}},{"base_weights":[1.1396274E3,-1.0601823E3,9.09546E4,-1.3309471E3,4.0290965E4,6.4403074E4,2.517889E5,2.7188732E4,-4.8927144E3,8.610075E4,-7.77606E4,1.2392034E5,7.0130305E4,1.9448977E4,9.649172E4,-3.804755E3,-9.1055914E4,5.2081215E4,3.1679734E5,-1.3537586E5,8.259521E4,-9.36805E3,1.6283052E5,1.7445234E3,3.0828207E4,2.131469E4,1.9681777E3,-5.553698E2,4.1707E3,-7.162906E3,-2.1399334E4,-8.7301965E2,1.2987438E4,4.1264984E4,5.144408E3,-3.4969294E3,-1.6854465E4,1.284015E4,-4.5086874E2,8.078125E3,2.2468447E4],"categories":[],"categories_nodes":[],"categories_segments":[],"categories_sizes":[],"default_left":[0,0,0,0,0,0,0,0,0,0,0,0,0,0,0,0,0,0,0,0,0,0,0,0,0,0,0,0,0,0,0,0,0,0,0,0,0,0,0,0,0],"id":29,"left_children":[1,3,5,7,-1,9,11,13,15,17,19,21,-1,23,25,27,29,31,33,35,37,-1,39,-1,-1,-1,-1,-1,-1,-1,-1,-1,-1,-1,-1,-1,-1,-1,-1,-1,-1],"loss_changes":[6.032955E11,3.2660056E11,2.9552293E11,3.028428E11,0E0,2.0411105E11,4.8788157E11,1.7566782E11,2.4807005E11,4.2299956E11,9.433188E10,9.145601E10,0E0,1.6766732E11,2.9149397E11,2.0861787E11,6.348538E10,2.3766943E11,1.5681507E11,1.741865E10,1.2548641E10,0E0,2.2450274E10,0E0,0E0,0E0,0E0,0E0,0E0,0E0,0E0,0E0,0E0,0E0,0E0,0E0,0E0,0E0,0E0,0E0,0E0],"parents":[2147483647,0,0,1,1,2,2,3,3,5,5,6,6,7,7,8,8,9,9,10,10,11,11,13,13,14,14,15,15,16,16,17,17,18,18,19,19,20,20,22,22],"right_children":[2,4,6,8,-1,10,12,14,16,18,20,22,-1,24,26,28,30,32,34,36,38,-1,40,-1,-1,-1,-1,-1,-1,-1,-1,-1,-1,-1,-1,-1,-1,-1,-1,-1,-1],"split_conditions":[4E0,1E1,1E0,9E0,4.0290965E4,1.8E1,7E0,1.378E3,1E0,1.6E1,2.1E1,1.3E1,7.0130305E4,1E0,2.7E1,1E0,1.074E3,1E0,3.91E2,1E0,5E0,-9.36805E3,1.36E2,1.7445234E3,3.0828207E4,2.131469E4,1.9681777E3,-5.553698E2,4.1707E3,-7.162906E3,-2.1399334E4,-8.7301965E2,1.2987438E4,4.1264984E4,5.144408E3,-3.4969294E3,-1.6854465E4,1.284015E4,-4.5086874E2,8.078125E3,2.2468447E4],"split_indices":[1,0,23,6,0,6,1,2,16,6,3,3,0,13,3,24,2,20,4,7,1,0,4,0,0,0,0,0,0,0,0,0,0,0,0,0,0,0,0,0,0],"split_type":[0,0,0,0,0,0,0,0,0,0,0,0,0,0,0,0,0,0,0,0,0,0,0,0,0,0,0,0,0,0,0,0,0,0,0,0,0,0,0,0,0],"sum_hessian":[3.052E3,2.98E3,7.2E1,2.979E3,1E0,6.3E1,9E0,3.3E2,2.649E3,5.5E1,8E0,8E0,1E0,2.98E2,3.2E1,2.617E3,3.2E1,4.9E1,6E0,6E0,2E0,1E0,7E0,2.97E2,1E0,1.2E1,2E1,2.521E3,9.6E1,2.9E1,3E0,2.8E1,2.1E1,4E0,2E0,2E0,4E0,1E0,1E0,4E0,3E0],"tree_param":{"num_deleted":"0","num_feature":"27","num_nodes":"41","size_leaf_vector":"1"}},{"base_weights":[1.0954591E3,-3.2912847E3,4.048656E4,2.355944E4,-6.4809956E3,2.8922887E4,1.5426433E5,3.249448E4,-3.5236965E4,-5.5420576E3,-7.978169E4,1.4759355E5,2.256833E4,1.077906E5,5.0561525E5,4.8473506E3,6.190039E4,-1.0512886E4,-1.3809093E4,-7.138619E3,3.460324E4,-6.5073445E4,-1.9536748E4,-4.2411426E4,2.5786425E5,5.5549E4,-3.2699475E2,1.4425697E5,-1.2883866E4,9.218513E3,6.662377E4,-2.0039088E3,7.4390884E3,1.3333799E4,4.9185513E3,-7.567851E3,4.0667075E2,2.1469407E3,-9.726303E2,2.2548909E3,1.2241288E4,-9.136492E3,-4.6427144E3,-2.1293437E2,-5.0041978E3,3.0732973E4,-6.8929688E3,-3.6931348E2,1.159566E4,-1.1730337E3,1.5312952E4,1.8959941E4,-1.1851944E4],"categories":[],"categories_nodes":[],"categories_segments":[],"categories_sizes":[],"default_left":[0,0,0,0,0,0,0,0,0,0,0,0,0,0,0,0,0,0,0,0,0,0,0,0,0,0,0,0,0,0,0,0,0,0,0,0,0,0,0,0,0,0,0,0,0,0,0,0,0,0,0,0,0],"id":30,"left_children":[1,3,5,7,9,11,13,15,17,19,21,23,25,27,29,31,33,-1,35,37,39,41,-1,43,45,47,49,51,-1,-1,-1,-1,-1,-1,-1,-1,-1,-1,-1,-1,-1,-1,-1,-1,-1,-1,-1,-1,-1,-1,-1,-1,-1],"loss_changes":[5.2768755E11,2.3550806E11,3.9813906E11,1.5454672E11,1.6866037E11,2.0706281E11,4.026999E11,2.0619914E11,5.695601E10,1.5580419E11,3.9988756E10,3.0426415E11,2.008756E11,2.4294012E11,1.378013E11,2.2994192E11,1.0516516E11,0E0,3.459269E10,1.730654E11,9.5678956E10,9.97512E9,0E0,1.7376891E9,1.6666925E11,3.905039E11,2.782832E11,2.9651436E11,0E0,0E0,0E0,0E0,0E0,0E0,0E0,0E0,0E0,0E0,0E0,0E0,0E0,0E0,0E0,0E0,0E0,0E0,0E0,0E0,0E0,0E0,0E0,0E0,0E0],"parents":[2147483647,0,0,1,1,2,2,3,3,4,4,5,5,6,6,7,7,8,8,9,9,10,10,11,11,12,12,13,13,14,14,15,15,16,16,18,18,19,19,20,20,21,21,23,23,24,24,25,25,26,26,27,27],"right_children":[2,4,6,8,10,12,14,16,18,20,22,24,26,28,30,32,34,-1,36,38,40,42,-1,44,46,48,50,52,-1,-1,-1,-1,-1,-1,-1,-1,-1,-1,-1,-1,-1,-1,-1,-1,-1,-1,-1,-1,-1,-1,-1,-1,-1],"split_conditions":[3E0,9E0,2.74706E3,1.413E3,1E0,3E0,1E0,2.3E1,2.6E1,1E0,1.074E3,9.57E2,4.52E2,4E0,7E0,2E0,3E2,-1.0512886E4,6.75E2,2.25E2,4.67E2,2E0,-1.9536748E4,4.52E2,2E0,1E0,1E0,2E1,-1.2883866E4,9.218513E3,6.662377E4,-2.0039088E3,7.4390884E3,1.3333799E4,4.9185513E3,-7.567851E3,4.0667075E2,2.1469407E3,-9.726303E2,2.2548909E3,1.2241288E4,-9.136492E3,-4.6427144E3,-2.1293437E2,-5.0041978E3,3.0732973E4,-6.8929688E3,-3.6931348E2,1.159566E4,-1.1730337E3,1.5312952E4,1.8959941E4,-1.1851944E4],"split_indices":[1,6,2,4,16,0,23,3,3,23,2,2,4,5,1,8,4,0,2,4,4,1,0,4,5,20,23,6,0,0,0,0,0,0,0,0,0,0,0,0,0,0,0,0,0,0,0,0,0,0,0,0,0],"split_type":[0,0,0,0,0,0,0,0,0,0,0,0,0,0,0,0,0,0,0,0,0,0,0,0,0,0,0,0,0,0,0,0,0,0,0,0,0,0,0,0,0,0,0,0,0,0,0,0,0,0,0,0,0],"sum_hessian":[3.052E3,2.747E3,3.05E2,2.91E2,2.456E3,2.78E2,2.7E1,2.53E2,3.8E1,2.426E3,3E1,1.3E1,2.65E2,2.5E1,2E0,1.31E2,1.22E2,8E0,3E1,2.334E3,9.2E1,2.8E1,2E0,5E0,8E0,1.08E2,1.57E2,2.2E1,3E0,1E0,1E0,9.7E1,3.4E1,1.7E1,1.05E2,6E0,2.4E1,1.93E2,2.141E3,8.2E1,1E1,1E1,1.8E1,1E0,4E0,7E0,1E0,5.5E1,5.3E1,1.47E2,1E1,1.9E1,3E0],"tree_param":{"num_deleted":"0","num_feature":"27","num_nodes":"53","size_leaf_vector":"1"}},{"base_weights":[1.01945795E3,-3.1678052E3,3.581659E4,-1.3843198E4,3.4768281E3,2.2467662E4,9.8888375E4,-7.7355244E3,-2.9439236E4,4.3995824E4,1.6532393E2,1.9795705E4,3.7328414E4,7.491792E4,3.977674E5,-1.9285992E4,3.896955E3,1.0436008E4,-3.417904E4,3.975534E4,2.8914844E4,-4.399093E3,1.5439083E4,2.169698E5,1.5273749E4,2.3174983E5,3.840155E4,1.08406045E4,6.3292574E4,-2.2158093E3,4.708017E3,7.719114E2,-5.5100493E3,2.4153252E3,-3.373488E3,-3.9088093E3,5.250872E2,2.7366538E3,1.0039618E4,-9.695475E2,1.067235E3,1.0511218E4,1.038253E3,-3.0919712E3,4.751659E4,2.22862E4,1.1253845E3,-7.816375E3,2.7486953E4,1.1325409E3,4.136924E4],"categories":[],"categories_nodes":[],"categories_segments":[],"categories_sizes":[],"default_left":[0,0,0,0,0,0,0,0,0,0,0,0,0,0,0,0,0,0,0,0,0,0,0,0,0,0,0,0,0,0,0,0,0,0,0,0,0,0,0,0,0,0,0,0,0,0,0,0,0,0,0],"id":31,"left_children":[1,3,5,7,9,11,13,15,17,19,21,23,-1,25,27,29,31,33,35,37,-1,39,41,43,45,47,49,-1,-1,-1,-1,-1,-1,-1,-1,-1,-1,-1,-1,-1,-1,-1,-1,-1,-1,-1,-1,-1,-1,-1,-1],"loss_changes":[4.4495005E11,1.934144E11,2.7393481E11,9.940956E10,2.2554734E11,2.4757436E11,3.785632E11,1.0124868E11,5.5922934E10,1.205297E11,1.0847598E11,2.3831305E11,0E0,3.003548E11,2.0356995E11,7.309389E10,8.521243E10,2.0203698E10,5.1112477E10,9.191221E10,0E0,9.573275E10,1.61239E11,3.9871653E11,2.1946491E11,1.5511867E11,4.5257897E11,0E0,0E0,0E0,0E0,0E0,0E0,0E0,0E0,0E0,0E0,0E0,0E0,0E0,0E0,0E0,0E0,0E0,0E0,0E0,0E0,0E0,0E0,0E0,0E0],"parents":[2147483647,0,0,1,1,2,2,3,3,4,4,5,5,6,6,7,7,8,8,9,9,10,10,11,11,13,13,14,14,15,15,16,16,17,17,18,18,19,19,21,21,22,22,23,23,24,24,25,25,26,26],"right_children":[2,4,6,8,10,12,14,16,18,20,22,24,-1,26,28,30,32,34,36,38,-1,40,42,44,46,48,50,-1,-1,-1,-1,-1,-1,-1,-1,-1,-1,-1,-1,-1,-1,-1,-1,-1,-1,-1,-1,-1,-1,-1,-1],"split_conditions":[1.378E3,8.11E2,3E0,1.4E1,3E0,1E1,1E0,5E0,4.62E2,1E0,1E0,3E0,3.7328414E4,1.8E1,7E0,4E0,1.36E3,2.6E1,1E0,3.5E1,2.8914844E4,1E0,1.07E2,3E0,5E0,4.8E1,1.7E1,1.08406045E4,6.3292574E4,-2.2158093E3,4.708017E3,7.719114E2,-5.5100493E3,2.4153252E3,-3.373488E3,-3.9088093E3,5.250872E2,2.7366538E3,1.0039618E4,-9.695475E2,1.067235E3,1.0511218E4,1.038253E3,-3.0919712E3,4.751659E4,2.22862E4,1.1253845E3,-7.816375E3,2.7486953E4,1.1325409E3,4.136924E4],"split_indices":[2,2,5,11,0,0,23,11,4,13,20,0,0,3,1,8,4,6,15,3,0,15,4,1,6,4,6,0,0,0,0,0,0,0,0,0,0,0,0,0,0,0,0,0,0,0,0,0,0,0,0],"split_type":[0,0,0,0,0,0,0,0,0,0,0,0,0,0,0,0,0,0,0,0,0,0,0,0,0,0,0,0,0,0,0,0,0,0,0,0,0,0,0,0,0,0,0,0,0,0,0,0,0,0,0],"sum_hessian":[3.052E3,2.725E3,3.27E2,1.045E3,1.68E3,2.71E2,5.6E1,7.52E2,2.93E2,1.26E2,1.554E3,2.7E2,1E0,5.3E1,3E0,3.77E2,3.75E2,3.1E1,2.62E2,1.25E2,1E0,1.197E3,3.57E2,5E0,2.65E2,9E0,4.4E1,2E0,1E0,3.62E2,1.5E1,3.53E2,2.2E1,2.4E1,7E0,2.33E2,